{"batch loss": 0.49574071168899536, "_timestamp": 1651984010, "_runtime": 790, "_step": 689, "epoch": 29, "train/train_loss": 0.5622865517031063, "train/train_acc": 0.766109785202864, "train/train_f1": 0.7633885976645984, "val/val_loss": 1.523182715688433, "val/vaL_acc": 0.4541372674791533, "val/val_f1": 0.46537414639364616, "gradients/graph_41fc2.bias": {"_type": "histogram", "values": [1.0, 0.0, 0.0, 0.0, 0.0, 0.0, 0.0, 0.0, 0.0, 0.0, 0.0, 0.0, 0.0, 0.0, 0.0, 0.0, 0.0, 0.0, 0.0, 0.0, 0.0, 0.0, 0.0, 0.0, 0.0, 0.0, 0.0, 0.0, 0.0, 0.0, 0.0, 0.0, 0.0, 0.0, 0.0, 0.0, 0.0, 0.0, 0.0, 0.0, 1.0, 0.0, 0.0, 0.0, 0.0, 0.0, 0.0, 0.0, 0.0, 0.0, 0.0, 0.0, 0.0, 0.0, 0.0, 0.0, 0.0, 0.0, 0.0, 0.0, 0.0, 0.0, 0.0, 1.0], "bins": [-0.010354935191571712, -0.01005898229777813, -0.009763029403984547, -0.009467076510190964, -0.00917112361639738, -0.008875170722603798, -0.008579217828810215, -0.008283264935016632, -0.007987312972545624, -0.007691360078752041, -0.007395407184958458, -0.007099454291164875, -0.006803501397371292, -0.006507548503577709, -0.006211596075445414, -0.005915643181651831, -0.0056196898221969604, -0.0053237369284033775, -0.005027784034609795, -0.004731831140816212, -0.004435878247022629, -0.004139925353229046, -0.0038439729250967503, -0.0035480200313031673, -0.0032520671375095844, -0.0029561142437160015, -0.0026601613499224186, -0.0023642086889594793, -0.0020682557951658964, -0.0017723029013723135, -0.0014763501239940524, -0.0011803973466157913, -0.0008844435214996338, -0.0005884906859137118, -0.0002925378503277898, 3.4149852581322193e-06, 0.0002993678208440542, 0.0005953207146376371, 0.0008912734920158982, 0.0011872262693941593, 0.0014831791631877422, 0.0017791320569813251, 0.002075084950774908, 0.0023710376117378473, 0.0026669905055314302, 0.002962943399325013, 0.0032588960602879524, 0.0035548489540815353, 0.0038508018478751183, 0.004146754741668701, 0.004442707635462284, 0.004738660529255867, 0.00503461342304945, 0.005330566316843033, 0.0056265187449753284, 0.005922471638768911, 0.006218424532562494, 0.006514377426356077, 0.00681033032014966, 0.007106283213943243, 0.007402235642075539, 0.0076981885358691216, 0.007994141429662704, 0.008290094323456287, 0.00858604721724987]}, "gradients/graph_41fc2.weight": {"_type": "histogram", "values": [1.0, 0.0, 0.0, 0.0, 1.0, 2.0, 2.0, 2.0, 5.0, 2.0, 6.0, 9.0, 10.0, 10.0, 13.0, 22.0, 23.0, 35.0, 44.0, 51.0, 58.0, 63.0, 77.0, 97.0, 105.0, 96.0, 124.0, 147.0, 141.0, 111.0, 136.0, 129.0, 132.0, 132.0, 118.0, 105.0, 92.0, 73.0, 68.0, 56.0, 42.0, 35.0, 36.0, 18.0, 20.0, 9.0, 10.0, 4.0, 3.0, 6.0, 2.0, 3.0, 3.0, 1.0, 0.0, 1.0, 1.0, 0.0, 0.0, 1.0, 2.0, 0.0, 0.0, 1.0], "bins": [-0.020634274929761887, -0.019941821694374084, -0.019249366596341133, -0.018556911498308182, -0.01786445826292038, -0.017172005027532578, -0.016479549929499626, -0.015787094831466675, -0.015094641596078873, -0.014402187429368496, -0.01370973326265812, -0.013017279095947742, -0.012324824929237366, -0.011632370762526989, -0.010939916595816612, -0.010247462429106236, -0.009555008262395859, -0.008862554095685482, -0.008170099928975105, -0.0074776457622647285, -0.006785191595554352, -0.006092737428843975, -0.005400283262133598, -0.004707829095423222, -0.004015374928712845, -0.003322920762002468, -0.0026304665952920914, -0.0019380124285817146, -0.0012455582618713379, -0.0005531040951609612, 0.0001393500715494156, 0.0008318042382597923, 0.001524258404970169, 0.002216712571680546, 0.0029091667383909225, 0.0036016209051012993, 0.004294075071811676, 0.004986529238522053, 0.0056789834052324295, 0.006371437571942806, 0.007063891738653183, 0.00775634590536356, 0.008448800072073936, 0.009141254238784313, 0.00983370840549469, 0.010526162572205067, 0.011218616738915443, 0.01191107090562582, 0.012603525072336197, 0.013295979239046574, 0.01398843340575695, 0.014680887572467327, 0.015373341739177704, 0.016065794974565506, 0.016758250072598457, 0.01745070517063141, 0.01814315840601921, 0.018835611641407013, 0.019528066739439964, 0.020220521837472916, 0.020912975072860718, 0.02160542830824852, 0.02229788340628147, 0.022990338504314423, 0.023682791739702225]}, "gradients/graph_41seperable.2.weight": {"_type": "histogram", "values": [1.0, 0.0, 0.0, 1.0, 0.0, 0.0, 0.0, 2.0, 1.0, 1.0, 3.0, 0.0, 0.0, 2.0, 0.0, 0.0, 0.0, 0.0, 1.0, 1.0, 1.0, 1.0, 1.0, 2.0, 3.0, 2.0, 1.0, 1.0, 1.0, 1.0, 1.0, 1.0, 2.0, 1.0, 4.0, 1.0, 1.0, 1.0, 2.0, 1.0, 0.0, 1.0, 1.0, 2.0, 0.0, 2.0, 0.0, 2.0, 2.0, 0.0, 0.0, 3.0, 0.0, 1.0, 1.0, 1.0, 0.0, 2.0, 1.0, 1.0, 0.0, 0.0, 1.0, 1.0], "bins": [-0.021818021312355995, -0.021146276965737343, -0.02047453075647354, -0.01980278640985489, -0.019131042063236237, -0.018459295853972435, -0.017787551507353783, -0.01711580529808998, -0.01644406095147133, -0.015772316604852676, -0.015100570395588875, -0.014428826048970222, -0.013757080771028996, -0.013085335493087769, -0.012413591146469116, -0.01174184586852789, -0.011070100590586662, -0.010398355312645435, -0.009726610034704208, -0.009054865688085556, -0.008383120410144329, -0.007711375132203102, -0.0070396303199231625, -0.006367885507643223, -0.005696140229701996, -0.005024394951760769, -0.004352650139480829, -0.003680905094370246, -0.0030091600492596626, -0.0023374150041490793, -0.001665669959038496, -0.0009939251467585564, -0.0003221780061721802, 0.00034956703893840313, 0.0010213120840489864, 0.0016930571291595697, 0.002364802174270153, 0.0030365472193807364, 0.0037082922644913197, 0.004380037076771259, 0.005051782354712486, 0.005723527632653713, 0.006395272444933653, 0.0070670172572135925, 0.0077387625351548195, 0.008410507813096046, 0.009082252159714699, 0.009753997437655926, 0.010425742715597153, 0.01109748799353838, 0.011769233271479607, 0.012440977618098259, 0.013112722896039486, 0.013784468173980713, 0.014456212520599365, 0.015127957798540592, 0.01579970307648182, 0.01647144742310047, 0.017143193632364273, 0.017814937978982925, 0.018486682325601578, 0.01915842853486538, 0.01983017288148403, 0.020501919090747833, 0.021173663437366486]}, "gradients/graph_41seperable.2.bias": {"_type": "histogram", "values": [1.0, 0.0, 0.0, 0.0, 0.0, 1.0, 1.0, 1.0, 1.0, 0.0, 2.0, 0.0, 2.0, 1.0, 0.0, 0.0, 0.0, 3.0, 2.0, 2.0, 0.0, 1.0, 2.0, 2.0, 0.0, 0.0, 2.0, 3.0, 1.0, 3.0, 1.0, 4.0, 4.0, 1.0, 5.0, 1.0, 4.0, 1.0, 4.0, 3.0, 0.0, 1.0, 0.0, 0.0, 0.0, 1.0, 0.0, 0.0, 1.0, 0.0, 0.0, 0.0, 0.0, 0.0, 0.0, 1.0, 0.0, 0.0, 0.0, 0.0, 0.0, 0.0, 0.0, 1.0], "bins": [-0.03696120157837868, -0.03552814945578575, -0.034095101058483124, -0.0326620489358902, -0.03122900053858757, -0.029795948415994644, -0.028362898156046867, -0.02692984789609909, -0.025496797636151314, -0.024063747376203537, -0.02263069711625576, -0.021197646856307983, -0.019764594733715057, -0.01833154633641243, -0.016898494213819504, -0.015465443953871727, -0.01403239369392395, -0.012599343433976173, -0.011166293174028397, -0.009733241982758045, -0.008300191722810268, -0.006867141462862492, -0.00543409027159214, -0.004001040011644363, -0.0025679878890514374, -0.001134937396273017, 0.0002981130965054035, 0.0017311638221144676, 0.0031642140820622444, 0.004597264342010021, 0.006030315533280373, 0.007463365793228149, 0.008896410465240479, 0.010329460725188255, 0.011762510985136032, 0.013195562176406384, 0.01462861243635416, 0.01606166362762451, 0.01749471388757229, 0.018927764147520065, 0.020360812544822693, 0.02179386280477047, 0.023226913064718246, 0.024659965187311172, 0.0260930135846138, 0.027526065707206726, 0.028959115967154503, 0.03039216622710228, 0.031825218349695206, 0.03325827047228813, 0.03469131886959076, 0.036124370992183685, 0.03755741938948631, 0.03899047151207924, 0.040423519909381866, 0.04185657203197479, 0.04328962415456772, 0.044722676277160645, 0.04615572467446327, 0.0475887767970562, 0.049021825194358826, 0.05045487731695175, 0.05188792943954468, 0.053320977836847305, 0.05475402623414993]}, "gradients/graph_41seperable.1.weight": {"_type": "histogram", "values": [1.0, 0.0, 0.0, 0.0, 1.0, 0.0, 1.0, 1.0, 0.0, 1.0, 0.0, 0.0, 1.0, 2.0, 3.0, 4.0, 7.0, 4.0, 10.0, 20.0, 38.0, 43.0, 57.0, 74.0, 128.0, 183.0, 248.0, 409.0, 558.0, 782.0, 1107.0, 1641.0, 2220.0, 3052.0, 4099.0, 5253.0, 6402.0, 7183.0, 7055.0, 6126.0, 4895.0, 3834.0, 3049.0, 2137.0, 1468.0, 1081.0, 764.0, 506.0, 342.0, 248.0, 176.0, 98.0, 75.0, 47.0, 28.0, 17.0, 18.0, 15.0, 11.0, 5.0, 4.0, 3.0, 0.0, 1.0], "bins": [-0.0037513745483011007, -0.003652402199804783, -0.003553429851308465, -0.003454457502812147, -0.003355485387146473, -0.003256513038650155, -0.003157540690153837, -0.0030585683416575193, -0.0029595959931612015, -0.0028606236446648836, -0.0027616512961685658, -0.0026626791805028915, -0.0025637068320065737, -0.002464734483510256, -0.002365762135013938, -0.00226678978651762, -0.002167817670851946, -0.002068845322355628, -0.00196987297385931, -0.0018709007417783141, -0.001771928509697318, -0.0016729561612010002, -0.0015739838127046824, -0.0014750114642083645, -0.0013760391157120466, -0.0012770667672157288, -0.0011780945351347327, -0.0010791221866384149, -0.0009801499545574188, -0.000881177606061101, -0.0007822052575647831, -0.0006832329672761261, -0.0005842605605721474, -0.0004852882702834904, -0.000386315950891003, -0.0002873436314985156, -0.00018837134120985866, -8.93990509212017e-05, 9.573297575116158e-06, 0.00010854558786377311, 0.00020751776173710823, 0.0003064900520257652, 0.0004054623714182526, 0.00050443469081074, 0.0006034069810993969, 0.0007023792713880539, 0.0008013516198843718, 0.0009003239101730287, 0.0009992963168770075, 0.0010982686653733253, 0.0011972408974543214, 0.0012962132459506392, 0.0013951854780316353, 0.0014941578265279531, 0.001593130175024271, 0.0016921025235205889, 0.001791074755601585, 0.0018900471040979028, 0.001989019336178899, 0.0020879916846752167, 0.0021869640331715345, 0.0022859363816678524, 0.0023849084973335266, 0.0024838808458298445, 0.0025828531943261623]}, "gradients/graph_41seperable.0.weight": {"_type": "histogram", "values": [1.0, 0.0, 0.0, 2.0, 0.0, 0.0, 0.0, 1.0, 0.0, 1.0, 0.0, 1.0, 1.0, 1.0, 1.0, 2.0, 0.0, 3.0, 2.0, 2.0, 7.0, 8.0, 5.0, 8.0, 6.0, 19.0, 20.0, 26.0, 26.0, 30.0, 38.0, 39.0, 49.0, 42.0, 63.0, 54.0, 53.0, 53.0, 57.0, 52.0, 54.0, 43.0, 37.0, 33.0, 32.0, 29.0, 20.0, 14.0, 17.0, 11.0, 10.0, 10.0, 7.0, 6.0, 5.0, 3.0, 3.0, 3.0, 3.0, 1.0, 2.0, 2.0, 4.0, 2.0], "bins": [-0.02022947557270527, -0.019688257947564125, -0.019147038459777832, -0.018605820834636688, -0.018064603209495544, -0.01752338372170925, -0.016982166096568108, -0.016440946608781815, -0.01589972898364067, -0.015358510427176952, -0.014817291870713234, -0.01427607424557209, -0.013734855689108372, -0.013193637132644653, -0.01265241950750351, -0.012111200951039791, -0.011569982394576073, -0.011028763838112354, -0.010487545281648636, -0.009946327656507492, -0.009405109100043774, -0.008863890543580055, -0.008322672918438911, -0.007781454361975193, -0.007240235805511475, -0.006699017249047756, -0.006157799158245325, -0.005616581067442894, -0.005075362510979176, -0.004534143954515457, -0.003992925863713026, -0.0034517075400799513, -0.002910488285124302, -0.002369269961491227, -0.0018280516378581524, -0.0012868333142250776, -0.0007456149905920029, -0.0002043966669589281, 0.00033682165667414665, 0.0008780399803072214, 0.0014192583039402962, 0.001960476627573371, 0.0025016949512064457, 0.0030429132748395205, 0.003584131598472595, 0.004125350154936314, 0.004666568245738745, 0.005207786336541176, 0.005749004893004894, 0.006290223449468613, 0.006831441540271044, 0.007372659631073475, 0.007913878187537193, 0.008455096744000912, 0.00899631530046463, 0.009537532925605774, 0.010078751482069492, 0.01061997003853321, 0.011161187663674355, 0.011702406220138073, 0.012243624776601791, 0.01278484333306551, 0.013326061889529228, 0.013867279514670372, 0.01440849807113409]}, "gradients/graph_41spatial.1.weight": {"_type": "histogram", "values": [1.0, 1.0, 0.0, 0.0, 0.0, 0.0, 0.0, 3.0, 0.0, 0.0, 2.0, 1.0, 2.0, 1.0, 0.0, 3.0, 1.0, 3.0, 3.0, 1.0, 1.0, 2.0, 3.0, 6.0, 0.0, 1.0, 3.0, 3.0, 1.0, 2.0, 2.0, 1.0, 2.0, 3.0, 0.0, 2.0, 0.0, 2.0, 3.0, 0.0, 0.0, 0.0, 0.0, 0.0, 0.0, 1.0, 0.0, 1.0, 1.0, 1.0, 0.0, 0.0, 0.0, 0.0, 0.0, 0.0, 0.0, 0.0, 0.0, 0.0, 0.0, 0.0, 0.0, 1.0], "bins": [-0.01280795969069004, -0.012290379963815212, -0.011772800236940384, -0.011255220510065556, -0.010737640783190727, -0.010220061987638474, -0.009702482260763645, -0.009184902533888817, -0.008667322807013988, -0.00814974308013916, -0.007632163353264332, -0.007114584092050791, -0.0065970043651759624, -0.006079424638301134, -0.005561845377087593, -0.005044265650212765, -0.004526685923337936, -0.004009106196463108, -0.0034915267024189234, -0.0029739472083747387, -0.0024563674814999104, -0.001938787754625082, -0.0014212082605808973, -0.0009036287665367126, -0.0003860490396618843, 0.0001315305707976222, 0.0006491101812571287, 0.0011666897917166352, 0.0016842694021761417, 0.00220184912905097, 0.0027194286230951548, 0.0032370081171393394, 0.0037545859813690186, 0.004272165708243847, 0.004789745435118675, 0.005307324696332216, 0.005824904423207045, 0.006342484150081873, 0.006860063411295414, 0.007377643138170242, 0.00789522286504507, 0.008412802591919899, 0.008930382318794727, 0.009447962045669556, 0.00996554084122181, 0.010483121499419212, 0.011000700294971466, 0.011518280021846294, 0.012035859748721123, 0.012553439475595951, 0.01307101920247078, 0.013588598929345608, 0.014106178656220436, 0.01462375745177269, 0.015141337178647518, 0.015658916905522346, 0.0161764957010746, 0.016694074496626854, 0.017211655154824257, 0.01772923395037651, 0.018246814608573914, 0.018764393404126167, 0.01928197406232357, 0.019799552857875824, 0.020317133516073227]}, "gradients/graph_41spatial.1.bias": {"_type": "histogram", "values": [1.0, 0.0, 0.0, 1.0, 0.0, 0.0, 0.0, 2.0, 0.0, 0.0, 2.0, 0.0, 0.0, 1.0, 1.0, 3.0, 0.0, 1.0, 2.0, 1.0, 1.0, 2.0, 2.0, 0.0, 1.0, 1.0, 2.0, 2.0, 4.0, 2.0, 3.0, 1.0, 2.0, 3.0, 3.0, 2.0, 1.0, 2.0, 1.0, 2.0, 2.0, 0.0, 1.0, 2.0, 1.0, 1.0, 0.0, 0.0, 1.0, 0.0, 0.0, 0.0, 1.0, 0.0, 0.0, 0.0, 0.0, 0.0, 1.0, 0.0, 0.0, 0.0, 0.0, 2.0], "bins": [-0.007612163200974464, -0.007342558354139328, -0.007072953507304192, -0.006803348194807768, -0.0065337433479726315, -0.006264138501137495, -0.005994533188641071, -0.005724928341805935, -0.0054553234949707985, -0.005185718648135662, -0.004916113801300526, -0.004646508488804102, -0.0043769036419689655, -0.004107298795133829, -0.003837693715468049, -0.003568088635802269, -0.0032984837889671326, -0.003028878942131996, -0.002759273862466216, -0.002489668782800436, -0.0022200639359652996, -0.0019504589727148414, -0.0016808540094643831, -0.0014112490462139249, -0.0011416440829634666, -0.0008720391197130084, -0.0006024341564625502, -0.0003328291932120919, -6.322422996163368e-05, 0.00020638073328882456, 0.0004759856965392828, 0.000745590659789741, 0.001015196554362774, 0.0012848015176132321, 0.0015544064808636904, 0.0018240114441141486, 0.002093616407364607, 0.0023632212541997433, 0.0026328263338655233, 0.0029024314135313034, 0.00317203626036644, 0.0034416411072015762, 0.0037112461868673563, 0.003980851266533136, 0.004250456113368273, 0.004520060960203409, 0.004789666272699833, 0.005059271119534969, 0.005328875966370106, 0.005598480813205242, 0.005868085660040379, 0.006137690972536802, 0.006407295819371939, 0.006676900666207075, 0.006946505978703499, 0.007216110825538635, 0.007485715672373772, 0.007755320519208908, 0.008024925366044044, 0.008294530212879181, 0.008564135059714317, 0.008833740837872028, 0.009103345684707165, 0.009372950531542301, 0.009642555378377438]}, "gradients/graph_41spatial.0.weight": {"_type": "histogram", "values": [1.0, 0.0, 1.0, 0.0, 0.0, 0.0, 0.0, 2.0, 0.0, 0.0, 0.0, 0.0, 0.0, 3.0, 0.0, 2.0, 2.0, 3.0, 2.0, 2.0, 9.0, 6.0, 9.0, 26.0, 32.0, 43.0, 66.0, 94.0, 56.0, 43.0, 35.0, 22.0, 12.0, 11.0, 11.0, 1.0, 3.0, 2.0, 2.0, 0.0, 3.0, 2.0, 1.0, 3.0, 0.0, 0.0, 1.0, 0.0, 0.0, 0.0, 0.0, 0.0, 0.0, 0.0, 0.0, 0.0, 0.0, 0.0, 0.0, 0.0, 0.0, 0.0, 0.0, 1.0], "bins": [-0.08374368399381638, -0.080714151263237, -0.07768461853265762, -0.07465508580207825, -0.07162554562091827, -0.0685960128903389, -0.06556648015975952, -0.06253694742918015, -0.05950741469860077, -0.05647788196802139, -0.05344834923744202, -0.05041881278157234, -0.047389280050992966, -0.04435974732041359, -0.041330210864543915, -0.03830067813396454, -0.03527114540338516, -0.032241612672805786, -0.02921207807958126, -0.026182543486356735, -0.02315301075577736, -0.020123478025197983, -0.017093943431973457, -0.014064408838748932, -0.011034876108169556, -0.008005342446267605, -0.004975808784365654, -0.0019462751224637032, 0.0010832585394382477, 0.0041127922013401985, 0.007142325863242149, 0.010171860456466675, 0.013201393187046051, 0.016230925917625427, 0.019260460510849953, 0.022289995104074478, 0.025319527834653854, 0.02834906056523323, 0.031378597021102905, 0.03440812975168228, 0.03743766248226166, 0.040467195212841034, 0.04349672794342041, 0.046526264399290085, 0.04955579712986946, 0.05258532986044884, 0.05561486631631851, 0.05864439904689789, 0.061673931777477264, 0.06470346450805664, 0.06773299723863602, 0.0707625299692154, 0.07379207015037537, 0.07682160288095474, 0.07985113561153412, 0.0828806683421135, 0.08591020107269287, 0.08893973380327225, 0.09196926653385162, 0.094998799264431, 0.09802833199501038, 0.10105787217617035, 0.10408740490674973, 0.1071169376373291, 0.11014647036790848]}, "gradients/graph_41temporal.1.weight": {"_type": "histogram", "values": [1.0, 0.0, 2.0, 1.0, 0.0, 0.0, 0.0, 1.0, 0.0, 1.0, 0.0, 0.0, 1.0, 0.0, 1.0, 1.0, 1.0, 0.0, 2.0, 0.0, 0.0, 0.0, 0.0, 0.0, 0.0, 0.0, 0.0, 0.0, 0.0, 0.0, 0.0, 0.0, 0.0, 0.0, 1.0, 0.0, 0.0, 0.0, 0.0, 0.0, 0.0, 1.0, 0.0, 0.0, 0.0, 0.0, 0.0, 0.0, 0.0, 0.0, 0.0, 0.0, 0.0, 0.0, 0.0, 0.0, 0.0, 1.0, 0.0, 0.0, 0.0, 0.0, 0.0, 1.0], "bins": [-1.7742124214237265e-07, -1.63851709089613e-07, -1.5028217603685334e-07, -1.367126429840937e-07, -1.2314310993133404e-07, -1.0957357687857439e-07, -9.600404382581473e-08, -8.243451077305508e-08, -6.886497772029543e-08, -5.5295444667535776e-08, -4.1725911614776123e-08, -2.815637856201647e-08, -1.4586845509256818e-08, -1.0173124564971658e-09, 1.2552220596262487e-08, 2.612175364902214e-08, 3.969128670178179e-08, 5.3260819754541444e-08, 6.68303528073011e-08, 8.039988586006075e-08, 9.39694189128204e-08, 1.0753895196558005e-07, 1.211084850183397e-07, 1.3467801807109936e-07, 1.48247551123859e-07, 1.6181708417661866e-07, 1.7538661722937832e-07, 1.8895615028213797e-07, 2.0252568333489762e-07, 2.1609521638765727e-07, 2.2966474944041693e-07, 2.432342967040313e-07, 2.5680384396764566e-07, 2.7037339123126003e-07, 2.8394291007316497e-07, 2.975124289150699e-07, 3.1108197617868427e-07, 3.2465152344229864e-07, 3.382210422842036e-07, 3.517905611261085e-07, 3.653601083897229e-07, 3.7892965565333725e-07, 3.924991744952422e-07, 4.060686933371471e-07, 4.196382406007615e-07, 4.3320778786437586e-07, 4.467773067062808e-07, 4.6034682554818573e-07, 4.739163728118001e-07, 4.874859200754145e-07, 5.0105541049561e-07, 5.146249577592243e-07, 5.281945050228387e-07, 5.417640522864531e-07, 5.553335995500674e-07, 5.68903089970263e-07, 5.824726372338773e-07, 5.960421844974917e-07, 6.096116749176872e-07, 6.231812221813016e-07, 6.367507694449159e-07, 6.503203167085303e-07, 6.638898639721447e-07, 6.774593543923402e-07, 6.910289016559545e-07]}, "gradients/graph_41temporal.1.bias": {"_type": "histogram", "values": [1.0, 0.0, 0.0, 0.0, 0.0, 0.0, 0.0, 0.0, 0.0, 0.0, 0.0, 0.0, 0.0, 0.0, 0.0, 0.0, 2.0, 0.0, 0.0, 0.0, 0.0, 0.0, 0.0, 1.0, 0.0, 0.0, 0.0, 0.0, 0.0, 0.0, 0.0, 0.0, 0.0, 1.0, 1.0, 0.0, 0.0, 2.0, 0.0, 0.0, 0.0, 0.0, 2.0, 1.0, 1.0, 0.0, 0.0, 0.0, 1.0, 1.0, 0.0, 0.0, 0.0, 0.0, 0.0, 0.0, 0.0, 1.0, 0.0, 0.0, 0.0, 0.0, 0.0, 1.0], "bins": [-1.102307578548789e-08, -1.0755886847846341e-08, -1.0488697910204792e-08, -1.0221508972563242e-08, -9.954320034921693e-09, -9.687131097280144e-09, -9.419942159638595e-09, -9.152753221997045e-09, -8.885564284355496e-09, -8.618375346713947e-09, -8.351186409072398e-09, -8.083997471430848e-09, -7.816808533789299e-09, -7.54961959614775e-09, -7.2824306585062004e-09, -7.015241720864651e-09, -6.748052783223102e-09, -6.480863845581553e-09, -6.213674907940003e-09, -5.946485970298454e-09, -5.679297032656905e-09, -5.4121080950153555e-09, -5.144919157373806e-09, -4.877730219732257e-09, -4.610541282090708e-09, -4.343352344449158e-09, -4.076163406807609e-09, -3.80897446916606e-09, -3.5417855315245106e-09, -3.2745965938829613e-09, -3.007407656241412e-09, -2.7402187185998628e-09, -2.4730297809583135e-09, -2.2058408433167642e-09, -1.938651905675215e-09, -1.6714629680336657e-09, -1.4042740303921164e-09, -1.1370850927505671e-09, -8.698961551090179e-10, -6.027072174674686e-10, -3.355182798259193e-10, -6.832934218437003e-11, 1.9885959545717924e-10, 4.660485330987285e-10, 7.332374707402778e-10, 1.000426408381827e-09, 1.2676153460233763e-09, 1.5348042836649256e-09, 1.8019932213064749e-09, 2.069182158948024e-09, 2.3363710965895734e-09, 2.6035600342311227e-09, 2.870748971872672e-09, 3.1379379095142212e-09, 3.4051268471557705e-09, 3.6723157847973198e-09, 3.939504722438869e-09, 4.206693660080418e-09, 4.473882597721968e-09, 4.741071535363517e-09, 5.008260473005066e-09, 5.2754494106466154e-09, 5.542638348288165e-09, 5.809827285929714e-09, 6.077016223571263e-09]}, "gradients/graph_41temporal.0.weight": {"_type": "histogram", "values": [5.0, 2.0, 1.0, 7.0, 3.0, 1.0, 2.0, 6.0, 2.0, 4.0, 4.0, 6.0, 8.0, 11.0, 13.0, 10.0, 12.0, 15.0, 9.0, 18.0, 8.0, 10.0, 20.0, 18.0, 22.0, 26.0, 41.0, 44.0, 48.0, 72.0, 68.0, 58.0, 57.0, 53.0, 37.0, 40.0, 25.0, 29.0, 25.0, 19.0, 11.0, 15.0, 10.0, 15.0, 6.0, 10.0, 9.0, 8.0, 9.0, 7.0, 9.0, 13.0, 10.0, 5.0, 3.0, 6.0, 4.0, 3.0, 6.0, 3.0, 0.0, 0.0, 2.0, 1.0], "bins": [-0.008178062736988068, -0.007914544083178043, -0.007651025895029306, -0.007387507241219282, -0.007123989053070545, -0.006860470399260521, -0.006596951745450497, -0.00633343355730176, -0.006069915369153023, -0.0058063967153429985, -0.0055428785271942616, -0.005279359873384237, -0.0050158416852355, -0.004752323031425476, -0.004488804377615452, -0.004225286189466715, -0.003961767535656691, -0.00369824911467731, -0.0034347306936979294, -0.003171212039887905, -0.002907693851739168, -0.002644175197929144, -0.0023806567769497633, -0.0021171383559703827, -0.0018536197021603584, -0.0015901012811809778, -0.0013265828602015972, -0.0010630643228068948, -0.0007995459018275142, -0.0005360274808481336, -0.00027250894345343113, -8.990522474050522e-06, 0.00025452766567468643, 0.000518046086654067, 0.0007815645658411086, 0.00104508304502815, 0.0013086014660075307, 0.0015721198869869113, 0.0018356384243816137, 0.0020991568453609943, 0.0023626750335097313, 0.002626193454489112, 0.0028897118754684925, 0.0031532305292785168, 0.0034167487174272537, 0.003680267371237278, 0.003943786025047302, 0.004207304213196039, 0.0044708228670060635, 0.004734341520816088, 0.004997859708964825, 0.005261378362774849, 0.005524896550923586, 0.00578841520473361, 0.006051933392882347, 0.006315452046692371, 0.006578970700502396, 0.00684248935431242, 0.007106007542461157, 0.007369526196271181, 0.007633044384419918, 0.007896563038229942, 0.008160081692039967, 0.00842360034584999, 0.00868711806833744]}, "_wandb": {"runtime": 788}}