{"batch loss": 0.7529153227806091, "_timestamp": 1651754213, "_runtime": 417, "_step": 3919, "gradients/fc2.bias": {"_type": "histogram", "values": [1.0, 0.0, 0.0, 0.0, 0.0, 0.0, 0.0, 0.0, 0.0, 0.0, 0.0, 0.0, 0.0, 0.0, 0.0, 0.0, 0.0, 1.0, 0.0, 0.0, 0.0, 0.0, 0.0, 0.0, 0.0, 0.0, 0.0, 0.0, 0.0, 0.0, 0.0, 0.0, 0.0, 0.0, 0.0, 0.0, 0.0, 0.0, 0.0, 0.0, 0.0, 0.0, 0.0, 0.0, 0.0, 0.0, 0.0, 0.0, 0.0, 0.0, 0.0, 0.0, 0.0, 0.0, 0.0, 0.0, 0.0, 0.0, 0.0, 0.0, 0.0, 0.0, 0.0, 1.0], "bins": [-0.19292087852954865, -0.18577739596366882, -0.1786338984966278, -0.17149041593074799, -0.16434693336486816, -0.15720343589782715, -0.15005995333194733, -0.1429164707660675, -0.1357729732990265, -0.12862949073314667, -0.12148599326610565, -0.11434251070022583, -0.10719902068376541, -0.10005553066730499, -0.09291204810142517, -0.08576855808496475, -0.07862506806850433, -0.07148157805204391, -0.0643380880355835, -0.057194605469703674, -0.050051115453243256, -0.04290762543678284, -0.03576413914561272, -0.028620652854442596, -0.021477162837982178, -0.014333674684166908, -0.007190186530351639, -4.6698376536369324e-05, 0.0070967897772789, 0.014240279793739319, 0.02138376608490944, 0.02852725237607956, 0.035670727491378784, 0.0428142175078392, 0.04995770379900932, 0.05710119009017944, 0.06424468010663986, 0.07138817012310028, 0.0785316526889801, 0.08567514270544052, 0.09281863272190094, 0.09996212273836136, 0.10710561275482178, 0.1142490953207016, 0.12139258533716202, 0.12853607535362244, 0.13567955791950226, 0.14282304048538208, 0.1499665379524231, 0.15711002051830292, 0.16425351798534393, 0.17139700055122375, 0.17854049801826477, 0.1856839805841446, 0.19282746315002441, 0.19997096061706543, 0.20711444318294525, 0.21425792574882507, 0.2214014232158661, 0.2285449057817459, 0.23568838834762573, 0.24283188581466675, 0.24997536838054657, 0.2571188509464264, 0.2642623484134674]}, "gradients/fc2.weight": {"_type": "histogram", "values": [1.0, 0.0, 0.0, 0.0, 1.0, 2.0, 1.0, 2.0, 4.0, 3.0, 3.0, 1.0, 4.0, 5.0, 3.0, 6.0, 8.0, 12.0, 14.0, 12.0, 15.0, 20.0, 20.0, 22.0, 20.0, 29.0, 25.0, 37.0, 38.0, 39.0, 32.0, 40.0, 38.0, 33.0, 39.0, 32.0, 29.0, 33.0, 27.0, 34.0, 23.0, 26.0, 17.0, 16.0, 17.0, 14.0, 17.0, 9.0, 10.0, 10.0, 8.0, 7.0, 9.0, 5.0, 2.0, 5.0, 2.0, 3.0, 5.0, 3.0, 1.0, 3.0, 2.0, 2.0], "bins": [-0.13994985818862915, -0.13574835658073425, -0.13154685497283936, -0.12734535336494446, -0.12314385920763016, -0.11894236505031586, -0.11474086344242096, -0.11053936183452606, -0.10633786022663116, -0.10213635861873627, -0.09793486446142197, -0.09373336285352707, -0.08953186124563217, -0.08533036708831787, -0.08112886548042297, -0.07692736387252808, -0.07272586971521378, -0.06852436810731888, -0.06432287395000458, -0.06012137234210968, -0.05591987073421478, -0.051718372851610184, -0.047516874969005585, -0.04331537336111069, -0.03911387920379639, -0.03491238132119179, -0.03071087971329689, -0.02650938183069229, -0.022307882085442543, -0.018106382340192795, -0.013904884457588196, -0.009703384712338448, -0.005501881241798401, -0.00130038196220994, 0.002901117317378521, 0.007102616131305695, 0.011304115876555443, 0.015505615621805191, 0.01970711350440979, 0.02390861324965954, 0.028110116720199585, 0.032311614602804184, 0.03651311621069908, 0.04071461409330368, 0.04491611570119858, 0.04911761358380318, 0.053319111466407776, 0.05752061307430267, 0.061722107231616974, 0.06592360883951187, 0.07012510299682617, 0.07432660460472107, 0.07852810621261597, 0.08272960782051086, 0.08693110197782516, 0.09113260358572006, 0.09533409774303436, 0.09953559935092926, 0.10373709350824356, 0.10793859511613846, 0.11214009672403336, 0.11634159088134766, 0.12054309248924255, 0.12474459409713745, 0.12894609570503235]}, "gradients/spatial.1.weight": {"_type": "histogram", "values": [1.0, 0.0, 0.0, 0.0, 0.0, 0.0, 0.0, 0.0, 0.0, 0.0, 0.0, 0.0, 0.0, 0.0, 1.0, 0.0, 1.0, 0.0, 0.0, 0.0, 1.0, 0.0, 0.0, 0.0, 0.0, 0.0, 0.0, 1.0, 0.0, 0.0, 0.0, 0.0, 0.0, 0.0, 1.0, 0.0, 0.0, 0.0, 0.0, 0.0, 0.0, 0.0, 2.0, 0.0, 0.0, 0.0, 0.0, 0.0, 0.0, 0.0, 0.0, 1.0, 0.0, 0.0, 0.0, 0.0, 0.0, 0.0, 0.0, 0.0, 0.0, 0.0, 0.0, 1.0], "bins": [-0.4422469139099121, -0.4292335510253906, -0.41622018814086914, -0.40320682525634766, -0.39019346237182617, -0.3771800994873047, -0.3641667366027832, -0.3511533737182617, -0.33814001083374023, -0.32512664794921875, -0.31211328506469727, -0.2990999221801758, -0.2860865592956543, -0.2730731964111328, -0.26005983352661133, -0.24704647064208984, -0.23403312265872955, -0.22101975977420807, -0.20800639688968658, -0.1949930340051651, -0.18197967112064362, -0.16896632313728333, -0.15595296025276184, -0.14293959736824036, -0.12992623448371887, -0.11691287159919739, -0.1038995087146759, -0.09088614583015442, -0.07787278294563293, -0.06485942751169205, -0.05184606462717056, -0.03883270174264908, -0.025819331407546997, -0.012805969454348087, 0.00020739249885082245, 0.013220753520727158, 0.026234116405248642, 0.03924747556447983, 0.05226083844900131, 0.0652742013335228, 0.07828757166862488, 0.09130093455314636, 0.10431429743766785, 0.11732766032218933, 0.13034102320671082, 0.1433543860912323, 0.15636774897575378, 0.16938111186027527, 0.18239445984363556, 0.19540782272815704, 0.20842118561267853, 0.2214345484972, 0.2344479113817215, 0.2474612593650818, 0.26047462224960327, 0.27348798513412476, 0.28650134801864624, 0.2995147109031677, 0.3125280737876892, 0.3255414366722107, 0.3385547995567322, 0.35156816244125366, 0.36458152532577515, 0.37759488821029663, 0.3906082510948181]}, "gradients/spatial.1.bias": {"_type": "histogram", "values": [1.0, 0.0, 0.0, 0.0, 0.0, 0.0, 0.0, 0.0, 0.0, 0.0, 0.0, 0.0, 0.0, 0.0, 0.0, 0.0, 1.0, 0.0, 0.0, 0.0, 0.0, 0.0, 0.0, 1.0, 1.0, 0.0, 0.0, 0.0, 0.0, 0.0, 0.0, 0.0, 0.0, 0.0, 0.0, 0.0, 1.0, 0.0, 0.0, 1.0, 0.0, 0.0, 0.0, 0.0, 0.0, 1.0, 0.0, 1.0, 0.0, 0.0, 0.0, 0.0, 0.0, 1.0, 0.0, 0.0, 0.0, 0.0, 0.0, 0.0, 0.0, 0.0, 0.0, 1.0], "bins": [-1.3637782335281372, -1.3268373012542725, -1.2898962497711182, -1.2529551982879639, -1.2160142660140991, -1.1790733337402344, -1.14213228225708, -1.1051912307739258, -1.068250298500061, -1.0313093662261963, -0.994368314743042, -0.9574273228645325, -0.920486330986023, -0.8835453391075134, -0.8466043472290039, -0.8096633553504944, -0.7727223634719849, -0.7357813715934753, -0.6988403797149658, -0.6618993878364563, -0.6249583959579468, -0.5880174040794373, -0.5510764122009277, -0.5141354203224182, -0.4771944284439087, -0.44025343656539917, -0.40331244468688965, -0.3663714528083801, -0.3294304609298706, -0.2924894690513611, -0.25554847717285156, -0.21860748529434204, -0.18166637420654297, -0.14472538232803345, -0.10778439044952393, -0.0708433985710144, -0.03390240669250488, 0.0030385851860046387, 0.03997957706451416, 0.07692056894302368, 0.1138615608215332, 0.15080255270004272, 0.18774354457855225, 0.22468453645706177, 0.2616255283355713, 0.2985665202140808, 0.33550751209259033, 0.37244850397109985, 0.4093894958496094, 0.4463304877281189, 0.4832714796066284, 0.5202124714851379, 0.5571534633636475, 0.594094455242157, 0.6310354471206665, 0.667976438999176, 0.7049174308776855, 0.7418584227561951, 0.7787994146347046, 0.8157404065132141, 0.8526813983917236, 0.8896223902702332, 0.9265633821487427, 0.9635043740272522, 1.0004453659057617]}, "gradients/spatial.0.weight": {"_type": "histogram", "values": [1.0, 1.0, 0.0, 0.0, 0.0, 0.0, 0.0, 1.0, 0.0, 0.0, 2.0, 2.0, 0.0, 2.0, 0.0, 0.0, 1.0, 0.0, 4.0, 4.0, 0.0, 0.0, 3.0, 3.0, 1.0, 2.0, 4.0, 6.0, 5.0, 7.0, 13.0, 12.0, 18.0, 6.0, 23.0, 22.0, 39.0, 35.0, 37.0, 48.0, 49.0, 52.0, 54.0, 46.0, 48.0, 39.0, 43.0, 33.0, 18.0, 15.0, 19.0, 15.0, 15.0, 5.0, 12.0, 10.0, 3.0, 7.0, 3.0, 4.0, 3.0, 1.0, 1.0, 3.0], "bins": [-0.31837090849876404, -0.31077244877815247, -0.3031740188598633, -0.2955755591392517, -0.28797709941864014, -0.28037863969802856, -0.2727802097797394, -0.2651817500591278, -0.25758329033851624, -0.24998484551906586, -0.24238638579845428, -0.2347879409790039, -0.22718948125839233, -0.21959103643894196, -0.21199259161949158, -0.20439413189888, -0.19679568707942963, -0.18919724225997925, -0.18159878253936768, -0.1740003377199173, -0.16640187799930573, -0.15880343317985535, -0.15120497345924377, -0.1436065286397934, -0.13600808382034302, -0.12840963900089264, -0.12081117928028107, -0.11321273446083069, -0.10561427474021912, -0.09801582992076874, -0.09041737765073776, -0.08281892538070679, -0.07522045075893402, -0.06762199848890305, -0.06002354621887207, -0.05242509767413139, -0.04482664540410042, -0.03722819313406944, -0.029629744589328766, -0.02203129231929779, -0.014432832598686218, -0.0068343812599778175, 0.0007640700787305832, 0.00836252048611641, 0.015960972756147385, 0.02355942502617836, 0.031157873570919037, 0.03875632584095001, 0.04635477066040039, 0.053953222930431366, 0.06155167520046234, 0.06915012001991272, 0.07674857974052429, 0.08434702455997467, 0.09194547683000565, 0.09954392910003662, 0.1071423813700676, 0.11474083364009857, 0.12233928591012955, 0.12993773818016052, 0.1375361829996109, 0.14513464272022247, 0.15273308753967285, 0.16033154726028442, 0.1679299920797348]}, "gradients/spatial.0.bias": {"_type": "histogram", "values": [1.0, 0.0, 0.0, 0.0, 0.0, 0.0, 0.0, 0.0, 0.0, 0.0, 0.0, 0.0, 1.0, 0.0, 0.0, 0.0, 0.0, 0.0, 0.0, 0.0, 0.0, 0.0, 0.0, 1.0, 1.0, 1.0, 0.0, 0.0, 1.0, 0.0, 0.0, 0.0, 0.0, 0.0, 0.0, 0.0, 0.0, 0.0, 0.0, 1.0, 1.0, 1.0, 0.0, 0.0, 0.0, 0.0, 0.0, 0.0, 0.0, 0.0, 0.0, 0.0, 0.0, 0.0, 0.0, 0.0, 0.0, 0.0, 0.0, 0.0, 0.0, 0.0, 0.0, 1.0], "bins": [-1.0132789611816406e-06, -9.797513484954834e-07, -9.462237358093262e-07, -9.126961231231689e-07, -8.791685104370117e-07, -8.456408977508545e-07, -8.121132850646973e-07, -7.7858567237854e-07, -7.450580596923828e-07, -7.115304470062256e-07, -6.780028343200684e-07, -6.444752216339111e-07, -6.109476089477539e-07, -5.774199962615967e-07, -5.438923835754395e-07, -5.103647708892822e-07, -4.76837158203125e-07, -4.4330954551696777e-07, -4.0978193283081055e-07, -3.762543201446533e-07, -3.427267074584961e-07, -3.0919909477233887e-07, -2.7567148208618164e-07, -2.421438694000244e-07, -2.086162567138672e-07, -1.7508864402770996e-07, -1.4156103134155273e-07, -1.0803341865539551e-07, -7.450580596923828e-08, -4.0978193283081055e-08, -7.450580596923828e-09, 2.60770320892334e-08, 5.960464477539063e-08, 9.313225746154785e-08, 1.2665987014770508e-07, 1.601874828338623e-07, 1.9371509552001953e-07, 2.2724270820617676e-07, 2.60770320892334e-07, 2.942979335784912e-07, 3.2782554626464844e-07, 3.6135315895080566e-07, 3.948807716369629e-07, 4.284083843231201e-07, 4.6193599700927734e-07, 4.954636096954346e-07, 5.289912223815918e-07, 5.62518835067749e-07, 5.960464477539062e-07, 6.295740604400635e-07, 6.631016731262207e-07, 6.966292858123779e-07, 7.301568984985352e-07, 7.636845111846924e-07, 7.972121238708496e-07, 8.307397365570068e-07, 8.642673492431641e-07, 8.977949619293213e-07, 9.313225746154785e-07, 9.648501873016357e-07, 9.98377799987793e-07, 1.0319054126739502e-06, 1.0654330253601074e-06, 1.0989606380462646e-06, 1.1324882507324219e-06]}, "gradients/temporal.1.weight": {"_type": "histogram", "values": [1.0, 0.0, 0.0, 0.0, 0.0, 0.0, 0.0, 0.0, 0.0, 0.0, 1.0, 0.0, 0.0, 0.0, 1.0, 0.0, 0.0, 1.0, 0.0, 0.0, 1.0, 1.0, 1.0, 0.0, 0.0, 0.0, 0.0, 0.0, 0.0, 0.0, 0.0, 0.0, 0.0, 0.0, 0.0, 0.0, 0.0, 0.0, 1.0, 0.0, 0.0, 0.0, 0.0, 0.0, 1.0, 0.0, 0.0, 0.0, 0.0, 0.0, 0.0, 0.0, 0.0, 0.0, 0.0, 0.0, 0.0, 0.0, 0.0, 0.0, 0.0, 0.0, 0.0, 1.0], "bins": [-0.06360399723052979, -0.06099359318614006, -0.05838318541646004, -0.05577278137207031, -0.05316237360239029, -0.050551969558000565, -0.04794156551361084, -0.04533115774393082, -0.04272075369954109, -0.04011034965515137, -0.037499941885471344, -0.03488953784108162, -0.032279133796691895, -0.02966872602701187, -0.027058321982622147, -0.024447916075587273, -0.0218375101685524, -0.019227104261517525, -0.01661669835448265, -0.014006294310092926, -0.011395888403058052, -0.008785482496023178, -0.006175078451633453, -0.0035646725445985794, -0.0009542703628540039, 0.0016561350785195827, 0.004266540519893169, 0.006876945495605469, 0.009487351402640343, 0.012097757309675217, 0.014708161354064941, 0.017318567261099815, 0.01992896944284439, 0.022539375349879265, 0.02514978125691414, 0.027760185301303864, 0.030370591208338737, 0.03298099711537361, 0.035591401159763336, 0.03820180892944336, 0.04081221669912338, 0.04342262074351311, 0.04603302851319313, 0.048643432557582855, 0.05125384032726288, 0.0538642443716526, 0.05647464841604233, 0.05908505618572235, 0.06169545650482178, 0.0643058642745018, 0.06691626459360123, 0.06952667236328125, 0.07213708013296127, 0.0747474879026413, 0.07735788822174072, 0.07996829599142075, 0.08257870376110077, 0.08518911153078079, 0.08779951184988022, 0.09040991961956024, 0.09302032738924026, 0.09563073515892029, 0.09824113547801971, 0.10085154324769974, 0.10346194356679916]}, "gradients/temporal.1.bias": {"_type": "histogram", "values": [1.0, 0.0, 0.0, 2.0, 0.0, 0.0, 0.0, 0.0, 0.0, 0.0, 0.0, 0.0, 0.0, 0.0, 0.0, 0.0, 0.0, 0.0, 0.0, 0.0, 0.0, 0.0, 0.0, 2.0, 0.0, 0.0, 0.0, 0.0, 1.0, 0.0, 0.0, 0.0, 1.0, 0.0, 0.0, 0.0, 0.0, 0.0, 0.0, 0.0, 0.0, 0.0, 0.0, 0.0, 0.0, 0.0, 0.0, 1.0, 0.0, 0.0, 0.0, 0.0, 0.0, 0.0, 0.0, 0.0, 0.0, 0.0, 0.0, 1.0, 0.0, 0.0, 0.0, 1.0], "bins": [-0.05217917636036873, -0.05089985206723213, -0.049620527774095535, -0.04834120348095894, -0.04706187918782234, -0.045782554894685745, -0.04450323060154915, -0.04322390630841255, -0.041944582015275955, -0.04066525772213936, -0.03938593342900276, -0.038106609135866165, -0.03682728484272957, -0.03554796054959297, -0.034268636256456375, -0.03298931196331978, -0.03170999139547348, -0.030430667102336884, -0.029151342809200287, -0.02787201851606369, -0.026592694222927094, -0.025313369929790497, -0.0240340456366539, -0.022754721343517303, -0.021475397050380707, -0.02019607275724411, -0.018916748464107513, -0.017637424170970917, -0.01635809987783432, -0.015078775584697723, -0.013799452222883701, -0.012520127929747105, -0.011240800842642784, -0.009961476549506187, -0.00868215225636959, -0.007402828428894281, -0.006123504135757685, -0.004844179842621088, -0.0035648560151457787, -0.002285531722009182, -0.0010062064975500107, 0.00027311767917126417, 0.001552441855892539, 0.002831765916198492, 0.004111090209335089, 0.005390414502471685, 0.006669738329946995, 0.007949062623083591, 0.009228385984897614, 0.01050771027803421, 0.011787034571170807, 0.013066358864307404, 0.014345683157444, 0.015625007450580597, 0.016904331743717194, 0.01818365603685379, 0.019462980329990387, 0.020742304623126984, 0.02202162891626358, 0.023300953209400177, 0.024580277502536774, 0.02585960179567337, 0.027138926088809967, 0.028418250381946564, 0.02969757281243801]}, "gradients/temporal.0.weight": {"_type": "histogram", "values": [1.0, 0.0, 0.0, 0.0, 0.0, 2.0, 1.0, 0.0, 1.0, 0.0, 0.0, 1.0, 1.0, 1.0, 1.0, 0.0, 1.0, 1.0, 2.0, 2.0, 0.0, 3.0, 2.0, 1.0, 4.0, 6.0, 6.0, 7.0, 17.0, 16.0, 19.0, 22.0, 28.0, 42.0, 46.0, 67.0, 36.0, 35.0, 44.0, 18.0, 13.0, 10.0, 8.0, 6.0, 7.0, 3.0, 2.0, 3.0, 4.0, 3.0, 0.0, 0.0, 0.0, 0.0, 1.0, 2.0, 1.0, 0.0, 1.0, 0.0, 0.0, 0.0, 0.0, 2.0], "bins": [-0.2693957984447479, -0.26175352931022644, -0.25411123037338257, -0.24646896123886108, -0.2388266772031784, -0.23118439316749573, -0.22354212403297424, -0.21589983999729156, -0.2082575559616089, -0.2006152719259262, -0.19297300279140472, -0.18533071875572205, -0.17768843472003937, -0.1700461506843567, -0.1624038815498352, -0.15476159751415253, -0.14711932837963104, -0.13947704434394836, -0.13183477520942688, -0.1241924911737442, -0.11655020713806152, -0.10890793055295944, -0.10126565396785736, -0.09362336993217468, -0.0859811007976532, -0.07833882421255112, -0.07069654017686844, -0.06305426359176636, -0.05541198328137398, -0.0477697029709816, -0.04012742638587952, -0.03248514607548714, -0.02484285831451416, -0.01720057800412178, -0.00955829955637455, -0.0019160211086273193, 0.00572625920176506, 0.01336853951215744, 0.02101081609725952, 0.0286530964076519, 0.03629538416862488, 0.04393766447901726, 0.05157994478940964, 0.05922222137451172, 0.0668645054101944, 0.07450678199529648, 0.08214905858039856, 0.08979134261608124, 0.09743361175060272, 0.1050758883357048, 0.11271817237138748, 0.12036044895648956, 0.12800273299217224, 0.13564500212669373, 0.1432872861623764, 0.15092957019805908, 0.15857183933258057, 0.16621412336826324, 0.17385639250278473, 0.1814986765384674, 0.18914096057415009, 0.19678324460983276, 0.20442551374435425, 0.21206779778003693, 0.2197100818157196]}, "gradients/temporal.0.bias": {"_type": "histogram", "values": [1.0, 0.0, 0.0, 0.0, 0.0, 0.0, 0.0, 0.0, 0.0, 0.0, 0.0, 0.0, 0.0, 0.0, 0.0, 0.0, 0.0, 0.0, 0.0, 0.0, 0.0, 0.0, 0.0, 0.0, 1.0, 0.0, 0.0, 0.0, 0.0, 0.0, 0.0, 0.0, 0.0, 0.0, 0.0, 0.0, 0.0, 1.0, 0.0, 0.0, 0.0, 0.0, 0.0, 1.0, 1.0, 0.0, 0.0, 0.0, 0.0, 0.0, 0.0, 0.0, 1.0, 0.0, 1.0, 0.0, 1.0, 0.0, 0.0, 0.0, 1.0, 0.0, 0.0, 1.0], "bins": [-4.88023943034932e-07, -4.783907456840097e-07, -4.6875754833308747e-07, -4.5912432256045577e-07, -4.494911252095335e-07, -4.398579278586112e-07, -4.3022473050768895e-07, -4.2059153315676667e-07, -4.1095830738413497e-07, -4.013251100332127e-07, -3.916919126822904e-07, -3.820586869096587e-07, -3.7242548955873644e-07, -3.6279229220781417e-07, -3.531590948568919e-07, -3.435258975059696e-07, -3.3389270015504735e-07, -3.242595028041251e-07, -3.146263054532028e-07, -3.049930796805711e-07, -2.953598823296488e-07, -2.8572668497872655e-07, -2.760934876278043e-07, -2.66460290276882e-07, -2.5682709292595973e-07, -2.4719389557503746e-07, -2.3756068401326047e-07, -2.279274866623382e-07, -2.182942751005612e-07, -2.0866107774963893e-07, -1.9902788039871666e-07, -1.893946830477944e-07, -1.7976145727516268e-07, -1.701282599242404e-07, -1.6049504836246342e-07, -1.5086185101154115e-07, -1.4122863944976416e-07, -1.3159544209884189e-07, -1.219622447479196e-07, -1.1232904029156998e-07, -1.0269583583522035e-07, -9.306263137887072e-08, -8.342942692252109e-08, -7.379622957159881e-08, -6.416302511524918e-08, -5.452982065889955e-08, -4.48966197552636e-08, -3.526341885162765e-08, -2.5630214395278017e-08, -1.5997011715285225e-08, -6.363809035292434e-09, 3.269393644700358e-09, 1.290259632469315e-08, 2.253580078104278e-08, 3.216900168467873e-08, 4.1802202588314685e-08, 5.1435407044664316e-08, 6.106861150101395e-08, 7.070181595736358e-08, 8.033501330828585e-08, 8.996821776463548e-08, 9.960142222098511e-08, 1.0923461957190739e-07, 1.1886782402825702e-07, 1.2850102848460665e-07]}, "epoch": 19, "train/train_loss": 0.7775468517572451, "train/train_acc": 21.287179487179486, "train/train_f1": 0.6577274137960635, "val/val_loss": 1.3184534883499146, "val/vaL_acc": 11.44, "val/val_f1": 0.35628449197145373, "_wandb": {"runtime": 413}}