{"batch loss": 0.7190386056900024, "_timestamp": 1651868182, "_runtime": 423, "_step": 689, "epoch": 29, "train/train_loss": 0.7396276024254885, "train/train_acc": 0.6682577565632458, "train/train_f1": 0.6667544717994058, "val/val_loss": 1.184546777180263, "val/vaL_acc": 0.4765875561257216, "val/val_f1": 0.46106507018626103, "gradients/graph_35fc2.bias": {"_type": "histogram", "values": [1.0, 0.0, 0.0, 0.0, 0.0, 0.0, 0.0, 0.0, 0.0, 0.0, 0.0, 0.0, 0.0, 0.0, 0.0, 0.0, 0.0, 0.0, 0.0, 0.0, 0.0, 0.0, 0.0, 0.0, 0.0, 0.0, 0.0, 0.0, 0.0, 0.0, 0.0, 0.0, 0.0, 0.0, 0.0, 0.0, 0.0, 0.0, 0.0, 0.0, 0.0, 1.0, 0.0, 0.0, 0.0, 0.0, 0.0, 0.0, 0.0, 0.0, 0.0, 0.0, 0.0, 0.0, 0.0, 0.0, 0.0, 0.0, 0.0, 0.0, 0.0, 0.0, 0.0, 1.0], "bins": [-0.08731827139854431, -0.08483190089464188, -0.08234553039073944, -0.079859159886837, -0.07737278938293457, -0.07488641887903214, -0.0724000483751297, -0.06991367787122726, -0.06742730736732483, -0.0649409368634224, -0.06245456635951996, -0.05996819585561752, -0.05748182535171509, -0.05499545484781265, -0.05250908434391022, -0.05002271384000778, -0.04753633961081505, -0.04504996910691261, -0.04256359860301018, -0.04007722809910774, -0.03759085759520531, -0.03510448709130287, -0.03261811286211014, -0.030131744220852852, -0.027645371854305267, -0.025159001350402832, -0.022672630846500397, -0.02018626034259796, -0.017699889838695526, -0.015213518403470516, -0.012727146968245506, -0.010240776464343071, -0.007754407823085785, -0.00526803731918335, -0.002781666349619627, -0.0002952953800559044, 0.002191075123846531, 0.004677445627748966, 0.007163817062973976, 0.009650187566876411, 0.012136556208133698, 0.014622926712036133, 0.017109297215938568, 0.019595667719841003, 0.02208203822374344, 0.024568408727645874, 0.02705478109419346, 0.029541151598095894, 0.03202752396464348, 0.034513894468545914, 0.03700026497244835, 0.039486635476350784, 0.04197300598025322, 0.044459376484155655, 0.04694575071334839, 0.049432121217250824, 0.05191849172115326, 0.054404862225055695, 0.05689123272895813, 0.059377603232860565, 0.061863973736763, 0.06435034424066544, 0.06683671474456787, 0.0693230852484703, 0.07180945575237274]}, "gradients/graph_35fc2.weight": {"_type": "histogram", "values": [1.0, 0.0, 0.0, 0.0, 1.0, 0.0, 1.0, 3.0, 9.0, 6.0, 11.0, 9.0, 16.0, 20.0, 28.0, 29.0, 28.0, 20.0, 33.0, 26.0, 24.0, 9.0, 13.0, 6.0, 4.0, 4.0, 0.0, 2.0, 10.0, 8.0, 7.0, 18.0, 15.0, 20.0, 22.0, 25.0, 25.0, 31.0, 30.0, 22.0, 27.0, 27.0, 26.0, 21.0, 21.0, 47.0, 35.0, 31.0, 30.0, 17.0, 27.0, 14.0, 9.0, 6.0, 8.0, 7.0, 3.0, 3.0, 2.0, 2.0, 0.0, 0.0, 0.0, 1.0], "bins": [-0.05472375079989433, -0.05309529975056648, -0.05146685242652893, -0.04983840137720108, -0.04820995032787323, -0.04658150300383568, -0.04495305195450783, -0.043324604630470276, -0.041696153581142426, -0.040067702531814575, -0.03843925520777702, -0.03681080415844917, -0.03518235683441162, -0.03355390578508377, -0.03192545473575592, -0.03029700554907322, -0.028668556362390518, -0.027040107175707817, -0.025411657989025116, -0.023783206939697266, -0.022154757753014565, -0.020526308566331863, -0.018897857517004013, -0.017269408330321312, -0.01564095914363861, -0.01401250995695591, -0.012384059838950634, -0.010755609720945358, -0.009127160534262657, -0.007498711347579956, -0.00587026122957468, -0.004241811111569405, -0.002613358199596405, -0.0009849085472524166, 0.0006435411050915718, 0.0022719907574355602, 0.0039004404097795486, 0.00552888959646225, 0.0071573397144675255, 0.008785789832472801, 0.010414239019155502, 0.012042688205838203, 0.01367113832384348, 0.015299588441848755, 0.016928037628531456, 0.018556486815214157, 0.020184937864542007, 0.02181338705122471, 0.02344183623790741, 0.02507028542459011, 0.026698734611272812, 0.028327185660600662, 0.029955634847283363, 0.031584084033966064, 0.033212535083293915, 0.034840986132621765, 0.03646943345665932, 0.03809788450598717, 0.03972633183002472, 0.04135478287935257, 0.04298323392868042, 0.04461168125271797, 0.04624013230204582, 0.047868579626083374, 0.049497030675411224]}, "gradients/graph_35spatial.1.weight": {"_type": "histogram", "values": [1.0, 0.0, 0.0, 0.0, 0.0, 0.0, 0.0, 0.0, 1.0, 0.0, 0.0, 0.0, 0.0, 0.0, 2.0, 0.0, 0.0, 0.0, 0.0, 0.0, 0.0, 0.0, 0.0, 0.0, 0.0, 1.0, 0.0, 0.0, 0.0, 0.0, 0.0, 0.0, 0.0, 0.0, 0.0, 0.0, 0.0, 0.0, 0.0, 0.0, 1.0, 0.0, 0.0, 0.0, 0.0, 1.0, 0.0, 0.0, 0.0, 0.0, 0.0, 0.0, 0.0, 0.0, 0.0, 1.0, 0.0, 0.0, 0.0, 0.0, 0.0, 0.0, 0.0, 2.0], "bins": [-0.22851352393627167, -0.22169911861419678, -0.21488472819328308, -0.2080703228712082, -0.2012559175491333, -0.1944415271282196, -0.18762712180614471, -0.18081271648406982, -0.17399832606315613, -0.16718392074108124, -0.16036953032016754, -0.15355512499809265, -0.14674073457717896, -0.13992632925510406, -0.13311192393302917, -0.12629753351211548, -0.11948312819004059, -0.1126687303185463, -0.105854332447052, -0.09903992712497711, -0.09222552925348282, -0.08541113138198853, -0.07859672605991364, -0.07178232818841934, -0.06496793031692505, -0.058153532445430756, -0.051339130848646164, -0.04452472925186157, -0.03771033138036728, -0.030895933508872986, -0.024081531912088394, -0.017267130315303802, -0.010452747344970703, -0.0036383476108312607, 0.0031760521233081818, 0.009990451857447624, 0.016804851591587067, 0.02361924946308136, 0.03043365105986595, 0.03724805265665054, 0.044062450528144836, 0.05087684839963913, 0.05769124999642372, 0.06450565159320831, 0.0713200494647026, 0.0781344473361969, 0.08494885265827179, 0.09176325052976608, 0.09857764840126038, 0.10539204627275467, 0.11220644414424896, 0.11902084946632385, 0.12583523988723755, 0.13264964520931244, 0.13946405053138733, 0.14627844095230103, 0.15309284627437592, 0.1599072515964508, 0.1667216420173645, 0.1735360473394394, 0.18035045266151428, 0.18716484308242798, 0.19397924840450287, 0.20079365372657776, 0.20760804414749146]}, "gradients/graph_35spatial.1.bias": {"_type": "histogram", "values": [1.0, 0.0, 0.0, 0.0, 0.0, 0.0, 0.0, 0.0, 0.0, 0.0, 0.0, 0.0, 0.0, 1.0, 1.0, 0.0, 0.0, 0.0, 0.0, 0.0, 0.0, 1.0, 0.0, 0.0, 0.0, 1.0, 0.0, 0.0, 0.0, 0.0, 0.0, 0.0, 0.0, 0.0, 0.0, 0.0, 0.0, 0.0, 0.0, 1.0, 0.0, 0.0, 0.0, 1.0, 0.0, 0.0, 0.0, 0.0, 0.0, 0.0, 0.0, 0.0, 0.0, 1.0, 0.0, 0.0, 0.0, 0.0, 0.0, 0.0, 0.0, 0.0, 0.0, 2.0], "bins": [-0.3507014513015747, -0.34034281969070435, -0.3299841582775116, -0.31962552666664124, -0.3092668950557709, -0.2989082336425781, -0.28854960203170776, -0.2781909704208374, -0.26783233880996704, -0.2574737071990967, -0.24711506068706512, -0.23675641417503357, -0.2263977825641632, -0.21603913605213165, -0.2056804895401001, -0.19532185792922974, -0.184963196516037, -0.17460455000400543, -0.16424591839313507, -0.15388727188110352, -0.14352864027023315, -0.1331699937582016, -0.12281134724617004, -0.11245270818471909, -0.10209406912326813, -0.09173543006181717, -0.08137679100036621, -0.07101814448833466, -0.0606595054268837, -0.05030086636543274, -0.03994222357869148, -0.029583580791950226, -0.019224941730499268, -0.00886630080640316, 0.0014923401176929474, 0.011850981041789055, 0.022209621965885162, 0.03256826102733612, 0.04292690381407738, 0.053285546600818634, 0.06364418566226959, 0.07400282472372055, 0.08436146378517151, 0.09472011029720306, 0.10507874935865402, 0.11543738842010498, 0.12579603493213654, 0.1361546814441681, 0.14651331305503845, 0.15687195956707, 0.16723059117794037, 0.17758923768997192, 0.18794786930084229, 0.19830651581287384, 0.2086651623249054, 0.21902379393577576, 0.2293824404478073, 0.23974108695983887, 0.25009971857070923, 0.2604583501815796, 0.27081701159477234, 0.2811756432056427, 0.29153427481651306, 0.3018929362297058, 0.31225156784057617]}, "gradients/graph_35spatial.0.weight": {"_type": "histogram", "values": [1.0, 0.0, 0.0, 0.0, 0.0, 0.0, 0.0, 0.0, 0.0, 0.0, 0.0, 0.0, 0.0, 0.0, 0.0, 0.0, 0.0, 1.0, 0.0, 0.0, 3.0, 0.0, 0.0, 1.0, 0.0, 1.0, 3.0, 5.0, 6.0, 6.0, 15.0, 19.0, 32.0, 52.0, 84.0, 126.0, 151.0, 119.0, 61.0, 42.0, 32.0, 17.0, 7.0, 6.0, 5.0, 3.0, 0.0, 0.0, 0.0, 0.0, 0.0, 0.0, 1.0, 0.0, 0.0, 0.0, 0.0, 0.0, 0.0, 0.0, 0.0, 0.0, 0.0, 1.0], "bins": [-0.16360123455524445, -0.15906645357608795, -0.15453168749809265, -0.14999690651893616, -0.14546212553977966, -0.14092734456062317, -0.13639256358146667, -0.13185779750347137, -0.12732301652431488, -0.12278823554515839, -0.11825346201658249, -0.11371868848800659, -0.1091839075088501, -0.1046491265296936, -0.1001143530011177, -0.09557957947254181, -0.09104479849338531, -0.08651001751422882, -0.08197524398565292, -0.07744047045707703, -0.07290568947792053, -0.06837090849876404, -0.06383613497018814, -0.059301357716321945, -0.05476658046245575, -0.050231803208589554, -0.04569702595472336, -0.04116224870085716, -0.03662747144699097, -0.03209269419312477, -0.027557916939258575, -0.02302313968539238, -0.018488362431526184, -0.013953585177659988, -0.009418807923793793, -0.004884030669927597, -0.00034925341606140137, 0.004185523837804794, 0.00872030109167099, 0.013255078345537186, 0.01778985559940338, 0.022324632853269577, 0.026859410107135773, 0.03139418736100197, 0.035928964614868164, 0.04046374186873436, 0.044998519122600555, 0.04953329637646675, 0.05406807363033295, 0.05860285088419914, 0.06313762813806534, 0.06767240166664124, 0.07220718264579773, 0.07674196362495422, 0.08127673715353012, 0.08581151068210602, 0.09034629166126251, 0.094881072640419, 0.0994158461689949, 0.1039506196975708, 0.1084854006767273, 0.11302018165588379, 0.11755495518445969, 0.12208972871303558, 0.12662450969219208]}, "gradients/graph_35spatial.0.bias": {"_type": "histogram", "values": [1.0, 1.0, 0.0, 0.0, 0.0, 0.0, 0.0, 0.0, 0.0, 0.0, 0.0, 0.0, 0.0, 0.0, 0.0, 0.0, 0.0, 0.0, 0.0, 0.0, 0.0, 0.0, 0.0, 0.0, 0.0, 1.0, 0.0, 0.0, 0.0, 0.0, 0.0, 1.0, 0.0, 0.0, 0.0, 0.0, 0.0, 0.0, 0.0, 0.0, 0.0, 0.0, 0.0, 0.0, 0.0, 1.0, 0.0, 0.0, 1.0, 0.0, 0.0, 1.0, 1.0, 0.0, 0.0, 0.0, 0.0, 0.0, 0.0, 0.0, 0.0, 0.0, 0.0, 2.0], "bins": [-4.842877388000488e-07, -4.7322828322649e-07, -4.621688276529312e-07, -4.511093720793724e-07, -4.400499165058136e-07, -4.289904609322548e-07, -4.17931005358696e-07, -4.068715497851372e-07, -3.9581209421157837e-07, -3.8475263863801956e-07, -3.7369318306446075e-07, -3.6263372749090195e-07, -3.5157427191734314e-07, -3.4051481634378433e-07, -3.294553607702255e-07, -3.183959051966667e-07, -3.073364496231079e-07, -2.962769940495491e-07, -2.852175384759903e-07, -2.741580829024315e-07, -2.630986273288727e-07, -2.5203917175531387e-07, -2.4097971618175507e-07, -2.2992026060819626e-07, -2.1886080503463745e-07, -2.0780134946107864e-07, -1.9674189388751984e-07, -1.8568243831396103e-07, -1.7462298274040222e-07, -1.6356352716684341e-07, -1.525040715932846e-07, -1.414446160197258e-07, -1.30385160446167e-07, -1.1932570487260818e-07, -1.0826624929904938e-07, -9.720679372549057e-08, -8.614733815193176e-08, -7.508788257837296e-08, -6.402842700481415e-08, -5.296897143125534e-08, -4.190951585769653e-08, -3.0850060284137726e-08, -1.979060471057892e-08, -8.731149137020111e-09, 2.3283064365386963e-09, 1.3387762010097504e-08, 2.444721758365631e-08, 3.550667315721512e-08, 4.6566128730773926e-08, 5.762558430433273e-08, 6.868503987789154e-08, 7.974449545145035e-08, 9.080395102500916e-08, 1.0186340659856796e-07, 1.1292286217212677e-07, 1.2398231774568558e-07, 1.3504177331924438e-07, 1.461012288928032e-07, 1.57160684466362e-07, 1.682201400399208e-07, 1.7927959561347961e-07, 1.9033905118703842e-07, 2.0139850676059723e-07, 2.1245796233415604e-07, 2.2351741790771484e-07]}, "gradients/graph_35temporal.1.weight": {"_type": "histogram", "values": [1.0, 0.0, 0.0, 0.0, 0.0, 0.0, 0.0, 0.0, 0.0, 0.0, 1.0, 0.0, 0.0, 0.0, 0.0, 1.0, 0.0, 0.0, 0.0, 0.0, 0.0, 0.0, 0.0, 0.0, 0.0, 0.0, 0.0, 1.0, 0.0, 1.0, 0.0, 0.0, 0.0, 0.0, 0.0, 0.0, 1.0, 0.0, 0.0, 0.0, 0.0, 0.0, 0.0, 0.0, 0.0, 0.0, 0.0, 1.0, 0.0, 0.0, 1.0, 1.0, 0.0, 0.0, 0.0, 0.0, 0.0, 0.0, 0.0, 0.0, 0.0, 0.0, 0.0, 1.0], "bins": [-0.017087768763303757, -0.016587980091571808, -0.01608818955719471, -0.015588399954140186, -0.015088610351085663, -0.01458882074803114, -0.014089031144976616, -0.013589242473244667, -0.013089451938867569, -0.012589662335813046, -0.012089872732758522, -0.011590083129703999, -0.011090293526649475, -0.010590503923594952, -0.010090714320540428, -0.00959092564880848, -0.009091136045753956, -0.008591346442699432, -0.008091556839644909, -0.0075917672365903854, -0.007091977633535862, -0.0065921880304813385, -0.006092398893088102, -0.005592609290033579, -0.005092820152640343, -0.004593030549585819, -0.004093240946531296, -0.003593451576307416, -0.0030936619732528925, -0.002593872370198369, -0.002094082999974489, -0.0015942933969199657, -0.0010945023968815804, -0.0005947128520347178, -9.492330718785524e-05, 0.0004048661794513464, 0.0009046557825058699, 0.0014044453855603933, 0.0019042347557842731, 0.0024040243588387966, 0.0029038144275546074, 0.003403604030609131, 0.0039033936336636543, 0.004403183236718178, 0.004902972839772701, 0.005402762442827225, 0.005902551580220461, 0.006402341183274984, 0.0069021303206682205, 0.007401919923722744, 0.007901709526777267, 0.008401499129831791, 0.008901288732886314, 0.009401078335940838, 0.009900867938995361, 0.01040065661072731, 0.010900447145104408, 0.011400236748158932, 0.011900026351213455, 0.012399815954267979, 0.012899605557322502, 0.013399395160377026, 0.013899184763431549, 0.014398973435163498, 0.014898763038218021]}, "gradients/graph_35temporal.1.bias": {"_type": "histogram", "values": [1.0, 1.0, 0.0, 0.0, 0.0, 0.0, 0.0, 0.0, 0.0, 0.0, 0.0, 1.0, 0.0, 0.0, 0.0, 0.0, 0.0, 0.0, 0.0, 0.0, 0.0, 1.0, 0.0, 1.0, 1.0, 0.0, 0.0, 0.0, 1.0, 0.0, 0.0, 0.0, 1.0, 0.0, 0.0, 0.0, 0.0, 0.0, 0.0, 0.0, 0.0, 0.0, 0.0, 0.0, 0.0, 0.0, 0.0, 0.0, 0.0, 0.0, 0.0, 0.0, 1.0, 0.0, 0.0, 0.0, 0.0, 0.0, 0.0, 0.0, 0.0, 0.0, 0.0, 1.0], "bins": [-0.007992240600287914, -0.00737181818112731, -0.006751396227627993, -0.006130973808467388, -0.005510551854968071, -0.0048901294358074665, -0.004269707016646862, -0.003649285063147545, -0.0030288626439869404, -0.0024084404576569796, -0.001788018154911697, -0.0011675958521664143, -0.0005471736658364534, 7.324852049350739e-05, 0.0006936709396541119, 0.001314092893153429, 0.0019345153123140335, 0.0025549374986439943, 0.003175359684973955, 0.0037957821041345596, 0.004416204057633877, 0.005036626476794481, 0.005657048895955086, 0.006277470849454403, 0.006897893734276295, 0.007518316153436899, 0.008138738572597504, 0.00875916052609682, 0.009379582479596138, 0.01000000536441803, 0.010620427317917347, 0.011240849271416664, 0.011861270293593407, 0.012481692247092724, 0.013102115131914616, 0.013722537085413933, 0.01434295903891325, 0.014963380992412567, 0.015583803877234459, 0.01620422676205635, 0.016824647784233093, 0.017445070669054985, 0.018065491691231728, 0.01868591457605362, 0.01930633746087551, 0.019926758483052254, 0.020547181367874146, 0.021167602390050888, 0.02178802713751793, 0.02240845002233982, 0.023028871044516563, 0.023649293929338455, 0.024269716814160347, 0.02489013783633709, 0.02551056072115898, 0.026130981743335724, 0.026751404628157616, 0.027371827512979507, 0.02799224853515625, 0.028612671419978142, 0.029233094304800034, 0.029853515326976776, 0.030473938211798668, 0.03109436109662056, 0.0317147821187973]}, "gradients/graph_35temporal.0.weight": {"_type": "histogram", "values": [2.0, 1.0, 1.0, 1.0, 1.0, 0.0, 0.0, 2.0, 2.0, 4.0, 2.0, 2.0, 1.0, 3.0, 4.0, 4.0, 2.0, 4.0, 7.0, 8.0, 2.0, 7.0, 7.0, 8.0, 8.0, 9.0, 13.0, 23.0, 24.0, 11.0, 13.0, 23.0, 19.0, 19.0, 30.0, 26.0, 24.0, 19.0, 25.0, 22.0, 14.0, 16.0, 13.0, 11.0, 7.0, 4.0, 2.0, 7.0, 2.0, 5.0, 2.0, 3.0, 4.0, 0.0, 5.0, 0.0, 1.0, 7.0, 2.0, 3.0, 3.0, 3.0, 1.0, 2.0], "bins": [-0.03164825960993767, -0.030751682817935944, -0.02985510416328907, -0.028958527371287346, -0.028061948716640472, -0.027165371924638748, -0.026268795132637024, -0.02537221647799015, -0.024475637823343277, -0.023579061031341553, -0.02268248237669468, -0.021785905584692955, -0.02088932693004608, -0.019992750138044357, -0.019096173346042633, -0.01819959469139576, -0.017303017899394035, -0.01640644110739231, -0.015509862452745438, -0.014613285660743713, -0.01371670700609684, -0.012820130214095116, -0.011923552490770817, -0.011026974767446518, -0.010130397975444794, -0.009233820252120495, -0.008337242528796196, -0.007440665271133184, -0.006544087547808886, -0.005647509824484587, -0.004750932566821575, -0.0038543548434972763, -0.002957776188850403, -0.002061198465526104, -0.0011646209750324488, -0.00026804348453879356, 0.0006285342387855053, 0.0015251119621098042, 0.0024216892197728157, 0.0033182669430971146, 0.004214845597743988, 0.005111423321068287, 0.006008001044392586, 0.006904578302055597, 0.007801156025379896, 0.008697733283042908, 0.009594311006367207, 0.010490888729691505, 0.01138746552169323, 0.012284043245017529, 0.013180620968341827, 0.014077197760343552, 0.014973776414990425, 0.01587035320699215, 0.016766931861639023, 0.017663508653640747, 0.01856008544564247, 0.019456662237644196, 0.02035324089229107, 0.021249817684292793, 0.022146396338939667, 0.02304297313094139, 0.023939549922943115, 0.02483612857758999, 0.025732707232236862]}, "gradients/graph_35temporal.0.bias": {"_type": "histogram", "values": [1.0, 0.0, 0.0, 0.0, 0.0, 0.0, 1.0, 1.0, 1.0, 1.0, 1.0, 0.0, 1.0, 1.0, 0.0, 0.0, 1.0, 0.0, 0.0, 0.0, 0.0, 0.0, 0.0, 0.0, 0.0, 0.0, 0.0, 0.0, 0.0, 0.0, 0.0, 0.0, 0.0, 0.0, 0.0, 0.0, 0.0, 0.0, 0.0, 0.0, 0.0, 0.0, 0.0, 0.0, 0.0, 0.0, 0.0, 0.0, 0.0, 0.0, 0.0, 0.0, 0.0, 0.0, 0.0, 0.0, 0.0, 0.0, 0.0, 0.0, 0.0, 0.0, 0.0, 1.0], "bins": [-3.1297139457819867e-07, -2.73415025731083e-07, -2.3385864267311263e-07, -1.9430225961514225e-07, -1.5474589076802658e-07, -1.1518952192091092e-07, -7.563313886294054e-08, -3.607675580497016e-08, 3.479613042145502e-09, 4.303598899468852e-08, 8.259236494723154e-08, 1.2214874800520192e-07, 1.617051168523176e-07, 2.0126148569943325e-07, 2.4081788296825835e-07, 2.80374251815374e-07, 3.1993062066248967e-07, 3.5948698950960534e-07, 3.99043358356721e-07, 4.385997556255461e-07, 4.781561528943712e-07, 5.17712464898068e-07, 5.572688905886025e-07, 5.968252594357182e-07, 6.363816282828338e-07, 6.759379971299495e-07, 7.154943659770652e-07, 7.550507348241808e-07, 7.946071036712965e-07, 8.34163529361831e-07, 8.737198982089467e-07, 9.132762670560624e-07, 9.528325790597592e-07, 9.923890047502937e-07, 1.0319453167539905e-06, 1.071501742444525e-06, 1.1110580544482218e-06, 1.1506144801387563e-06, 1.1901707921424531e-06, 1.2297272178329877e-06, 1.2692835298366845e-06, 1.308839955527219e-06, 1.3483962675309158e-06, 1.3879526932214503e-06, 1.4275090052251471e-06, 1.4670654309156816e-06, 1.5066217429193784e-06, 1.546178168609913e-06, 1.5857345943004475e-06, 1.625291019990982e-06, 1.6648473319946788e-06, 1.7044037576852133e-06, 1.7439600696889102e-06, 1.7835164953794447e-06, 1.8230728073831415e-06, 1.862629233073676e-06, 1.9021856587642105e-06, 1.941742084454745e-06, 1.9812985101452796e-06, 2.0208547084621387e-06, 2.060411134152673e-06, 2.0999675598432077e-06, 2.1395239855337422e-06, 2.1790801838506013e-06, 2.218636609541136e-06]}, "_wandb": {"runtime": 421}}