{"batch loss": 0.36945584416389465, "_timestamp": 1651973975, "_runtime": 1030, "_step": 689, "epoch": 29, "train/train_loss": 0.28641011024063284, "train/train_acc": 0.891316320910593, "train/train_f1": 0.8900915516114272, "val/val_loss": 1.9213209663118636, "val/vaL_acc": 0.46119307248236047, "val/val_f1": 0.4660228572073227, "gradients/graph_30fc2.bias": {"_type": "histogram", "values": [1.0, 0.0, 0.0, 0.0, 0.0, 0.0, 0.0, 0.0, 0.0, 0.0, 0.0, 0.0, 0.0, 0.0, 0.0, 0.0, 0.0, 0.0, 0.0, 0.0, 0.0, 0.0, 0.0, 0.0, 0.0, 0.0, 0.0, 0.0, 0.0, 0.0, 0.0, 0.0, 0.0, 0.0, 0.0, 0.0, 0.0, 0.0, 0.0, 0.0, 1.0, 0.0, 0.0, 0.0, 0.0, 0.0, 0.0, 0.0, 0.0, 0.0, 0.0, 0.0, 0.0, 0.0, 0.0, 0.0, 0.0, 0.0, 0.0, 0.0, 0.0, 0.0, 0.0, 1.0], "bins": [-0.044191278517246246, -0.04292123019695282, -0.04165118187665939, -0.04038113355636597, -0.03911108523607254, -0.037841036915779114, -0.03657098859548569, -0.03530094027519226, -0.034030891954898834, -0.03276084363460541, -0.03149079531431198, -0.030220746994018555, -0.028950698673725128, -0.0276806503534317, -0.026410602033138275, -0.02514055371284485, -0.02387050725519657, -0.022600458934903145, -0.02133041061460972, -0.020060362294316292, -0.018790313974022865, -0.01752026565372944, -0.01625021919608116, -0.01498016994446516, -0.013710122555494308, -0.012440074235200882, -0.011170025914907455, -0.009899977594614029, -0.008629929274320602, -0.007359881419688463, -0.006089833565056324, -0.0048197852447628975, -0.0035497359931468964, -0.00227968767285347, -0.001009639585390687, 0.00026040850207209587, 0.0015304568223655224, 0.002800505142658949, 0.004070552997291088, 0.005340601317584515, 0.006610650569200516, 0.007880698889493942, 0.009150747209787369, 0.010420795530080795, 0.011690843850374222, 0.012960892170667648, 0.0142309395596385, 0.015500987879931927, 0.01677103526890278, 0.018041083589196205, 0.01931113190948963, 0.020581180229783058, 0.021851228550076485, 0.02312127687036991, 0.02439132332801819, 0.025661371648311615, 0.02693141996860504, 0.028201468288898468, 0.029471516609191895, 0.03074156492948532, 0.03201161324977875, 0.033281661570072174, 0.0345517098903656, 0.03582175821065903, 0.037091806530952454]}, "gradients/graph_30fc2.weight": {"_type": "histogram", "values": [2.0, 0.0, 0.0, 0.0, 1.0, 0.0, 1.0, 2.0, 4.0, 3.0, 3.0, 6.0, 5.0, 8.0, 10.0, 17.0, 32.0, 29.0, 30.0, 46.0, 45.0, 54.0, 66.0, 76.0, 77.0, 105.0, 78.0, 124.0, 117.0, 138.0, 138.0, 147.0, 124.0, 122.0, 113.0, 97.0, 98.0, 89.0, 73.0, 74.0, 62.0, 48.0, 43.0, 41.0, 30.0, 25.0, 19.0, 10.0, 20.0, 11.0, 8.0, 4.0, 3.0, 5.0, 5.0, 1.0, 1.0, 4.0, 0.0, 0.0, 1.0, 0.0, 0.0, 1.0], "bins": [-0.01577581837773323, -0.015272596850991249, -0.014769375324249268, -0.014266153797507286, -0.013762932270765305, -0.013259710744023323, -0.012756490148603916, -0.012253268621861935, -0.011750047095119953, -0.011246825568377972, -0.01074360404163599, -0.010240382514894009, -0.009737161919474602, -0.00923394039273262, -0.008730718865990639, -0.008227497339248657, -0.007724275812506676, -0.007221054285764694, -0.006717832759022713, -0.0062146116979420185, -0.005711390171200037, -0.0052081686444580555, -0.004704947583377361, -0.00420172605663538, -0.0036985045298933983, -0.0031952830031514168, -0.002692061709240079, -0.002188840415328741, -0.0016856188885867596, -0.001182397361844778, -0.0006791760679334402, -0.00017595477402210236, 0.0003272686153650284, 0.0008304900256916881, 0.0013337114360183477, 0.0018369328463450074, 0.002340154256671667, 0.0028433757834136486, 0.0033465970773249865, 0.0038498183712363243, 0.004353039897978306, 0.004856261424720287, 0.005359482951462269, 0.005862704012542963, 0.0063659255392849445, 0.006869147066026926, 0.00737236812710762, 0.007875589653849602, 0.008378811180591583, 0.008882032707333565, 0.009385254234075546, 0.009888475760817528, 0.01039169728755951, 0.01089491881430149, 0.011398139409720898, 0.01190136093646288, 0.01240458246320486, 0.012907803989946842, 0.013411025516688824, 0.013914247043430805, 0.014417467638850212, 0.014920689165592194, 0.015423910692334175, 0.015927132219076157, 0.016430353745818138]}, "gradients/graph_30seperable.2.weight": {"_type": "histogram", "values": [1.0, 1.0, 1.0, 0.0, 1.0, 0.0, 2.0, 1.0, 1.0, 0.0, 1.0, 2.0, 0.0, 0.0, 1.0, 0.0, 1.0, 0.0, 2.0, 2.0, 0.0, 2.0, 0.0, 0.0, 1.0, 2.0, 0.0, 1.0, 3.0, 2.0, 2.0, 2.0, 0.0, 1.0, 1.0, 2.0, 0.0, 3.0, 1.0, 0.0, 1.0, 0.0, 2.0, 2.0, 2.0, 0.0, 0.0, 2.0, 1.0, 1.0, 2.0, 2.0, 0.0, 2.0, 3.0, 0.0, 0.0, 1.0, 1.0, 0.0, 1.0, 0.0, 0.0, 1.0], "bins": [-0.06892717629671097, -0.06682633608579636, -0.06472550332546234, -0.06262466311454773, -0.060523830354213715, -0.0584229938685894, -0.05632215738296509, -0.054221317172050476, -0.05212048441171646, -0.05001964792609215, -0.047918811440467834, -0.04581797495484352, -0.04371713846921921, -0.041616301983594894, -0.03951546549797058, -0.03741462528705597, -0.035313788801431656, -0.03321295231580734, -0.03111211583018303, -0.029011279344558716, -0.026910442858934402, -0.02480960637331009, -0.022708768025040627, -0.020607931539416313, -0.01850709319114685, -0.016406256705522537, -0.014305420219898224, -0.012204582802951336, -0.010103746317327023, -0.00800290983170271, -0.005902072414755821, -0.003801235929131508, -0.0017004013061523438, 0.00040043541230261326, 0.0025012721307575703, 0.004602109082043171, 0.006702945567667484, 0.008803782053291798, 0.010904619470238686, 0.013005455955862999, 0.015106290578842163, 0.017207127064466476, 0.01930796355009079, 0.021408800035715103, 0.023509636521339417, 0.02561047300696373, 0.027711311355233192, 0.029812147840857506, 0.03191298618912697, 0.03401382267475128, 0.036114659160375595, 0.03821549564599991, 0.04031633213162422, 0.042417168617248535, 0.04451800882816315, 0.04661884158849716, 0.048719681799411774, 0.05082051828503609, 0.0529213547706604, 0.055022191256284714, 0.05712302774190903, 0.05922386422753334, 0.061324700713157654, 0.06342554092407227, 0.06552637368440628]}, "gradients/graph_30seperable.2.bias": {"_type": "histogram", "values": [2.0, 1.0, 2.0, 0.0, 2.0, 1.0, 1.0, 0.0, 0.0, 1.0, 0.0, 1.0, 2.0, 1.0, 2.0, 0.0, 0.0, 1.0, 0.0, 2.0, 0.0, 0.0, 2.0, 0.0, 1.0, 3.0, 2.0, 2.0, 0.0, 2.0, 2.0, 0.0, 2.0, 2.0, 0.0, 3.0, 2.0, 1.0, 1.0, 1.0, 0.0, 1.0, 2.0, 0.0, 0.0, 1.0, 0.0, 3.0, 1.0, 2.0, 0.0, 0.0, 1.0, 1.0, 0.0, 1.0, 1.0, 1.0, 0.0, 3.0, 0.0, 0.0, 0.0, 1.0], "bins": [-0.12202844023704529, -0.1179368868470192, -0.1138453334569931, -0.10975378006696701, -0.10566222667694092, -0.10157067328691483, -0.09747911989688873, -0.09338756650686264, -0.08929601311683655, -0.08520445972681046, -0.08111290633678436, -0.07702135294675827, -0.07292979955673218, -0.06883824616670609, -0.06474669277667999, -0.0606551393866539, -0.05656358599662781, -0.052472032606601715, -0.04838047921657562, -0.04428892582654953, -0.04019737243652344, -0.036105819046497345, -0.03201426565647125, -0.02792271226644516, -0.023831158876419067, -0.019739605486392975, -0.015648052096366882, -0.01155649870634079, -0.007464945316314697, -0.0033733919262886047, 0.0007181614637374878, 0.00480971485376358, 0.008901283144950867, 0.01299283653497696, 0.017084389925003052, 0.021175943315029144, 0.025267496705055237, 0.02935905009508133, 0.03345060348510742, 0.037542156875133514, 0.04163371026515961, 0.0457252636551857, 0.04981681704521179, 0.053908370435237885, 0.05799992382526398, 0.06209147721529007, 0.06618303060531616, 0.07027458399534225, 0.07436613738536835, 0.07845769077539444, 0.08254924416542053, 0.08664079755544662, 0.09073235094547272, 0.09482390433549881, 0.0989154577255249, 0.103007011115551, 0.10709856450557709, 0.11119011789560318, 0.11528167128562927, 0.11937322467565536, 0.12346477806568146, 0.12755632400512695, 0.13164788484573364, 0.13573944568634033, 0.13983099162578583]}, "gradients/graph_30seperable.1.weight": {"_type": "histogram", "values": [3.0, 0.0, 0.0, 1.0, 4.0, 8.0, 9.0, 19.0, 13.0, 28.0, 43.0, 58.0, 69.0, 78.0, 127.0, 170.0, 235.0, 310.0, 429.0, 586.0, 784.0, 1036.0, 1402.0, 1694.0, 2253.0, 2614.0, 3177.0, 3627.0, 4179.0, 4461.0, 4722.0, 4737.0, 4614.0, 4279.0, 3757.0, 3308.0, 2820.0, 2368.0, 1761.0, 1387.0, 1085.0, 864.0, 655.0, 454.0, 355.0, 299.0, 182.0, 141.0, 88.0, 57.0, 48.0, 40.0, 32.0, 14.0, 15.0, 11.0, 8.0, 7.0, 4.0, 3.0, 2.0, 0.0, 1.0, 1.0], "bins": [-0.0023839629720896482, -0.002307433169335127, -0.0022309033665806055, -0.0021543733309954405, -0.002077843528240919, -0.0020013137254863977, -0.0019247839227318764, -0.001848254119977355, -0.0017717242008075118, -0.0016951943980529904, -0.0016186644788831472, -0.0015421346761286259, -0.0014656048733741045, -0.0013890749542042613, -0.00131254515144974, -0.0012360152322798967, -0.0011594854295253754, -0.001082955626770854, -0.0010064257076010108, -0.0009298959048464894, -0.0008533660438843071, -0.0007768361829221249, -0.0007003063801676035, -0.0006237765192054212, -0.0005472466582432389, -0.00047071679728105664, -0.0003941869654227048, -0.000317657133564353, -0.0002411272726021707, -0.00016459741163998842, -8.80675797816366e-05, -1.1537747923284769e-05, 6.499234586954117e-05, 0.00014152219227980822, 0.00021805203869007528, 0.0002945818705484271, 0.0003711117315106094, 0.00044764159247279167, 0.000524171395227313, 0.0006007012561894953, 0.0006772311171516776, 0.0007537609781138599, 0.0008302908390760422, 0.0009068206418305635, 0.000983350444585085, 0.0010598803637549281, 0.0011364101665094495, 0.0012129400856792927, 0.001289469888433814, 0.0013659996911883354, 0.0014425296103581786, 0.0015190594131127, 0.0015955893322825432, 0.0016721191350370646, 0.001748648937791586, 0.0018251787405461073, 0.0019017086597159505, 0.0019782385788857937, 0.002054768381640315, 0.0021312981843948364, 0.002207827987149358, 0.002284357789903879, 0.002360887825489044, 0.0024374176282435656, 0.002513947430998087]}, "gradients/graph_30seperable.0.weight": {"_type": "histogram", "values": [1.0, 0.0, 0.0, 0.0, 0.0, 0.0, 2.0, 4.0, 3.0, 4.0, 9.0, 8.0, 10.0, 8.0, 11.0, 9.0, 24.0, 14.0, 21.0, 32.0, 21.0, 24.0, 38.0, 42.0, 42.0, 45.0, 34.0, 40.0, 48.0, 44.0, 47.0, 44.0, 54.0, 39.0, 24.0, 37.0, 29.0, 31.0, 26.0, 25.0, 16.0, 14.0, 18.0, 10.0, 8.0, 8.0, 8.0, 5.0, 3.0, 6.0, 2.0, 4.0, 7.0, 2.0, 4.0, 1.0, 3.0, 1.0, 0.0, 4.0, 2.0, 1.0, 2.0, 1.0], "bins": [-0.015257401391863823, -0.014738522469997406, -0.014219643548130989, -0.013700765557587147, -0.01318188663572073, -0.012663007713854313, -0.01214412972331047, -0.011625250801444054, -0.011106371879577637, -0.01058749295771122, -0.010068614035844803, -0.00954973604530096, -0.009030857123434544, -0.008511978201568127, -0.007993100211024284, -0.007474221289157867, -0.0069553423672914505, -0.006436463445425034, -0.005917584989219904, -0.005398706533014774, -0.004879827611148357, -0.0043609486892819405, -0.003842070233076811, -0.0033231915440410376, -0.0028043128550052643, -0.002285434165969491, -0.0017665554769337177, -0.0012476767878979445, -0.0007287980988621712, -0.0002099194098263979, 0.0003089592792093754, 0.0008278379682451487, 0.001346716657280922, 0.0018655953463166952, 0.0023844740353524685, 0.0029033527243882418, 0.003422231413424015, 0.003941110335290432, 0.004459988791495562, 0.004978867247700691, 0.005497746169567108, 0.006016625091433525, 0.006535503547638655, 0.007054382003843784, 0.007573260925710201, 0.008092139847576618, 0.00861101783812046, 0.009129896759986877, 0.009648775681853294, 0.010167654603719711, 0.010686533525586128, 0.01120541151612997, 0.011724290437996387, 0.012243169359862804, 0.012762047350406647, 0.013280926272273064, 0.01379980519413948, 0.014318684116005898, 0.014837563037872314, 0.015356441028416157, 0.01587532088160515, 0.016394197940826416, 0.016913076862692833, 0.01743195578455925, 0.017950834706425667]}, "gradients/graph_30spatial.1.weight": {"_type": "histogram", "values": [1.0, 0.0, 0.0, 0.0, 0.0, 0.0, 0.0, 0.0, 0.0, 0.0, 0.0, 0.0, 1.0, 1.0, 0.0, 0.0, 0.0, 0.0, 1.0, 0.0, 1.0, 0.0, 4.0, 0.0, 0.0, 8.0, 1.0, 2.0, 1.0, 3.0, 4.0, 5.0, 3.0, 5.0, 0.0, 3.0, 0.0, 4.0, 3.0, 3.0, 1.0, 4.0, 1.0, 2.0, 0.0, 0.0, 0.0, 0.0, 0.0, 0.0, 0.0, 0.0, 0.0, 1.0, 0.0, 0.0, 0.0, 0.0, 0.0, 0.0, 0.0, 0.0, 0.0, 1.0], "bins": [-0.017594195902347565, -0.017067592591047287, -0.01654098927974701, -0.01601438783109188, -0.015487784519791603, -0.014961181208491325, -0.014434577897191048, -0.013907975517213345, -0.013381373137235641, -0.012854769825935364, -0.01232816744595766, -0.011801564134657383, -0.01127496175467968, -0.010748358443379402, -0.010221755132079124, -0.009695152752101421, -0.009168549440801144, -0.008641946129500866, -0.008115343749523163, -0.007588740438222885, -0.007062138058245182, -0.006535534746944904, -0.006008931901305914, -0.0054823290556669235, -0.004955725744366646, -0.004429122898727655, -0.003902520053088665, -0.003375916974619031, -0.0028493141289800406, -0.00232271128334105, -0.001796108204871416, -0.0012695053592324257, -0.0007429029792547226, -0.00021630007540807128, 0.00031030282843858004, 0.0008369057904928923, 0.0013635086361318827, 0.001890111481770873, 0.002416714560240507, 0.0029433174058794975, 0.0034699197858572006, 0.003996522631496191, 0.004523125477135181, 0.005049728788435459, 0.005576331168413162, 0.00610293447971344, 0.00662953732535243, 0.007156140170991421, 0.0076827434822916985, 0.008209346793591976, 0.00873594917356968, 0.009262552484869957, 0.00978915486484766, 0.010315758176147938, 0.010842360556125641, 0.011368963867425919, 0.011895567178726196, 0.012422170490026474, 0.012948772870004177, 0.013475376181304455, 0.014001978561282158, 0.014528581872582436, 0.015055185183882713, 0.015581787563860416, 0.01610838994383812]}, "gradients/graph_30spatial.1.bias": {"_type": "histogram", "values": [1.0, 0.0, 0.0, 0.0, 0.0, 0.0, 1.0, 1.0, 0.0, 1.0, 1.0, 2.0, 0.0, 2.0, 1.0, 1.0, 0.0, 0.0, 1.0, 1.0, 3.0, 3.0, 2.0, 2.0, 3.0, 2.0, 0.0, 2.0, 2.0, 1.0, 3.0, 4.0, 3.0, 0.0, 2.0, 1.0, 0.0, 1.0, 2.0, 2.0, 3.0, 0.0, 1.0, 0.0, 1.0, 0.0, 1.0, 2.0, 1.0, 1.0, 0.0, 0.0, 0.0, 0.0, 0.0, 1.0, 0.0, 0.0, 0.0, 0.0, 0.0, 0.0, 0.0, 2.0], "bins": [-0.00698081124573946, -0.006727420724928379, -0.006474030204117298, -0.0062206401489675045, -0.005967249628156424, -0.005713859107345343, -0.005460469052195549, -0.005207078531384468, -0.004953688010573387, -0.004700297489762306, -0.004446906968951225, -0.004193516913801432, -0.003940126392990351, -0.00368673587217927, -0.0034333455841988325, -0.0031799552962183952, -0.0029265647754073143, -0.0026731742545962334, -0.002419783966615796, -0.002166393678635359, -0.0019130031578242779, -0.0016596127534285188, -0.0014062223490327597, -0.0011528319446370006, -0.0008994415402412415, -0.0006460511358454823, -0.00039266073144972324, -0.00013927032705396414, 0.00011412007734179497, 0.0003675104817375541, 0.0006209008861333132, 0.0008742912905290723, 0.0011276807636022568, 0.0013810711679980159, 0.001634461572393775, 0.001887851976789534, 0.002141242381185293, 0.002394632901996374, 0.0026480231899768114, 0.0029014134779572487, 0.0031548039987683296, 0.0034081945195794106, 0.003661584807559848, 0.003914975095540285, 0.004168365616351366, 0.004421756137162447, 0.004675146192312241, 0.0049285367131233215, 0.0051819272339344025, 0.005435317754745483, 0.005688708275556564, 0.005942098330706358, 0.006195488851517439, 0.00644887937232852, 0.0067022694274783134, 0.006955659948289394, 0.007209050469100475, 0.007462440989911556, 0.007715831510722637, 0.007969222031533718, 0.008222611621022224, 0.008476002141833305, 0.008729392662644386, 0.008982783183455467, 0.009236173704266548]}, "gradients/graph_30spatial.0.weight": {"_type": "histogram", "values": [1.0, 0.0, 0.0, 0.0, 0.0, 0.0, 0.0, 0.0, 0.0, 0.0, 1.0, 0.0, 2.0, 2.0, 1.0, 1.0, 2.0, 2.0, 4.0, 6.0, 10.0, 12.0, 5.0, 7.0, 16.0, 20.0, 31.0, 34.0, 32.0, 40.0, 56.0, 53.0, 49.0, 24.0, 23.0, 14.0, 17.0, 8.0, 9.0, 9.0, 3.0, 4.0, 2.0, 1.0, 1.0, 1.0, 1.0, 0.0, 3.0, 1.0, 1.0, 0.0, 0.0, 1.0, 0.0, 0.0, 0.0, 1.0, 0.0, 0.0, 0.0, 0.0, 0.0, 1.0], "bins": [-0.062183745205402374, -0.060130707919597626, -0.05807767063379288, -0.05602462962269783, -0.05397159233689308, -0.05191855505108833, -0.049865514039993286, -0.04781247675418854, -0.04575943946838379, -0.04370640218257904, -0.04165336489677429, -0.039600323885679245, -0.037547286599874496, -0.03549424931406975, -0.0334412083029747, -0.03138817101716995, -0.029335133731365204, -0.027282096445560455, -0.025229057297110558, -0.02317601814866066, -0.02112298086285591, -0.019069943577051163, -0.017016904428601265, -0.014963866211473942, -0.012910827994346619, -0.010857789777219296, -0.008804751560091972, -0.006751713342964649, -0.004698675125837326, -0.002645636908710003, -0.0005925986915826797, 0.0014604395255446434, 0.0035134851932525635, 0.005566523410379887, 0.00761956162750721, 0.009672599844634533, 0.011725638061761856, 0.01377867627888918, 0.015831714496016502, 0.0178847536444664, 0.01993779093027115, 0.021990828216075897, 0.024043867364525795, 0.026096906512975693, 0.02814994379878044, 0.03020298108458519, 0.03225602209568024, 0.034309059381484985, 0.036362096667289734, 0.03841513395309448, 0.04046817123889923, 0.04252121224999428, 0.044574249535799026, 0.046627286821603775, 0.04868032783269882, 0.05073336511850357, 0.05278640240430832, 0.05483943969011307, 0.056892476975917816, 0.05894551798701286, 0.06099855527281761, 0.06305159628391266, 0.06510463356971741, 0.06715767085552216, 0.0692107081413269]}, "gradients/graph_30temporal.1.weight": {"_type": "histogram", "values": [1.0, 0.0, 0.0, 0.0, 0.0, 0.0, 0.0, 0.0, 0.0, 0.0, 0.0, 0.0, 0.0, 0.0, 0.0, 0.0, 0.0, 0.0, 0.0, 0.0, 0.0, 0.0, 0.0, 0.0, 1.0, 0.0, 1.0, 0.0, 0.0, 0.0, 1.0, 1.0, 0.0, 1.0, 1.0, 0.0, 0.0, 0.0, 1.0, 1.0, 4.0, 1.0, 3.0, 1.0, 2.0, 1.0, 0.0, 2.0, 2.0, 1.0, 1.0, 1.0, 0.0, 1.0, 0.0, 1.0, 0.0, 0.0, 0.0, 1.0, 0.0, 0.0, 0.0, 1.0], "bins": [-5.353427354748419e-07, -5.23342009728367e-07, -5.113412271384732e-07, -4.993405013919983e-07, -4.873397756455233e-07, -4.75339021477339e-07, -4.633382673091546e-07, -4.513375415626797e-07, -4.3933678739449533e-07, -4.27336033226311e-07, -4.1533530747983605e-07, -4.033345533116517e-07, -3.9133379914346733e-07, -3.793330733969924e-07, -3.6733231922880805e-07, -3.553315650606237e-07, -3.4333083931414876e-07, -3.313300851459644e-07, -3.193293593994895e-07, -3.073286052313051e-07, -2.953278794848302e-07, -2.8332712531664583e-07, -2.713263711484615e-07, -2.5932564540198655e-07, -2.473248912338022e-07, -2.3532415127647255e-07, -2.233234113191429e-07, -2.1132265715095855e-07, -1.993219171936289e-07, -1.8732117723629926e-07, -1.753204230681149e-07, -1.6331968311078526e-07, -1.513189289426009e-07, -1.3931818898527126e-07, -1.273174348170869e-07, -1.1531669485975726e-07, -1.0331595490242762e-07, -9.131521494509798e-08, -7.931446788234098e-08, -6.731372081958398e-08, -5.5312980862254335e-08, -4.3312237352211014e-08, -3.131149384216769e-08, -1.931075033212437e-08, -7.31000682208105e-09, 4.690733135248593e-09, 1.6691480198005593e-08, 2.8692227260762593e-08, 4.0692967218092235e-08, 5.2693710728135557e-08, 6.469445423817888e-08, 7.669520130093588e-08, 8.869594125826552e-08, 1.0069668121559516e-07, 1.1269742827835216e-07, 1.2469817534110916e-07, 1.366989152984388e-07, 1.4869965525576845e-07, 1.607004094239528e-07, 1.7270114938128245e-07, 1.847018893386121e-07, 1.9670262929594173e-07, 2.0870336925327138e-07, 2.2070412342145573e-07, 2.3270486337878538e-07]}, "gradients/graph_30temporal.1.bias": {"_type": "histogram", "values": [1.0, 0.0, 0.0, 0.0, 0.0, 1.0, 0.0, 0.0, 0.0, 0.0, 0.0, 0.0, 1.0, 1.0, 0.0, 1.0, 0.0, 0.0, 0.0, 0.0, 0.0, 0.0, 0.0, 0.0, 0.0, 0.0, 2.0, 1.0, 0.0, 1.0, 1.0, 0.0, 2.0, 2.0, 2.0, 2.0, 1.0, 1.0, 1.0, 0.0, 2.0, 0.0, 1.0, 1.0, 0.0, 0.0, 0.0, 0.0, 1.0, 1.0, 1.0, 1.0, 0.0, 0.0, 1.0, 0.0, 0.0, 1.0, 0.0, 0.0, 0.0, 0.0, 0.0, 1.0], "bins": [-8.685674401931465e-09, -8.434350107222599e-09, -8.183025812513733e-09, -7.931701517804868e-09, -7.680377223096002e-09, -7.4290529283871365e-09, -7.177728633678271e-09, -6.926404338969405e-09, -6.6750800442605396e-09, -6.423755749551674e-09, -6.172431454842808e-09, -5.921107160133943e-09, -5.669782865425077e-09, -5.418458570716211e-09, -5.167134276007346e-09, -4.91580998129848e-09, -4.6644856865896145e-09, -4.413161391880749e-09, -4.161837097171883e-09, -3.9105128024630176e-09, -3.659188507754152e-09, -3.4078642130452863e-09, -3.1565399183364207e-09, -2.905215623627555e-09, -2.6538913289186894e-09, -2.4025670342098238e-09, -2.151242739500958e-09, -1.8999184447920925e-09, -1.6485941500832269e-09, -1.3972698553743612e-09, -1.1459455606654956e-09, -8.946212659566299e-10, -6.432969712477643e-10, -3.9197267653889867e-10, -1.4064838183003303e-10, 1.106759128788326e-10, 3.6200020758769824e-10, 6.133245022965639e-10, 8.646487970054295e-10, 1.1159730917142952e-09, 1.3672973864231608e-09, 1.6186216811320264e-09, 1.869945975840892e-09, 2.1212702705497577e-09, 2.3725945652586233e-09, 2.623918859967489e-09, 2.8752431546763546e-09, 3.1265674493852202e-09, 3.377891744094086e-09, 3.6292160388029515e-09, 3.880540333511817e-09, 4.131864628220683e-09, 4.3831889229295484e-09, 4.634513217638414e-09, 4.88583751234728e-09, 5.137161807056145e-09, 5.388486101765011e-09, 5.639810396473877e-09, 5.891134691182742e-09, 6.142458985891608e-09, 6.3937832806004735e-09, 6.645107575309339e-09, 6.896431870018205e-09, 7.1477561647270704e-09, 7.399080459435936e-09]}, "gradients/graph_30temporal.0.weight": {"_type": "histogram", "values": [1.0, 1.0, 1.0, 0.0, 0.0, 2.0, 0.0, 4.0, 3.0, 1.0, 2.0, 1.0, 3.0, 3.0, 7.0, 7.0, 8.0, 19.0, 14.0, 24.0, 21.0, 19.0, 28.0, 32.0, 32.0, 46.0, 45.0, 52.0, 47.0, 48.0, 77.0, 73.0, 85.0, 115.0, 107.0, 94.0, 104.0, 112.0, 91.0, 100.0, 77.0, 83.0, 59.0, 51.0, 52.0, 46.0, 38.0, 41.0, 22.0, 30.0, 26.0, 27.0, 16.0, 15.0, 7.0, 1.0, 6.0, 5.0, 4.0, 3.0, 3.0, 3.0, 2.0, 2.0], "bins": [-0.008090522140264511, -0.007862146012485027, -0.0076337698847055435, -0.00740539375692606, -0.007177017629146576, -0.006948641501367092, -0.006720265373587608, -0.0064918892458081245, -0.006263513118028641, -0.006035136990249157, -0.005806760862469673, -0.005578384734690189, -0.005350008606910706, -0.005121632479131222, -0.004893256351351738, -0.004664880223572254, -0.00443650409579277, -0.004208127968013287, -0.003979751840233803, -0.003751375712454319, -0.003522999584674835, -0.0032946234568953514, -0.0030662473291158676, -0.002837871201336384, -0.0026094950735569, -0.0023811189457774162, -0.0021527428179979324, -0.0019243666902184486, -0.0016959905624389648, -0.001467614434659481, -0.0012392383068799973, -0.0010108621791005135, -0.000782486516982317, -0.0005541103892028332, -0.0003257342614233494, -9.735813364386559e-05, 0.0001310179941356182, 0.000359394121915102, 0.0005877702496945858, 0.0008161463774740696, 0.0010445225052535534, 0.0012728986330330372, 0.001501274760812521, 0.0017296508885920048, 0.0019580270163714886, 0.0021864031441509724, 0.002414779271930456, 0.00264315539970994, 0.0028715315274894238, 0.0030999076552689075, 0.0033282837830483913, 0.003556659910827875, 0.003785036038607359, 0.004013412166386843, 0.0042417882941663265, 0.00447016442194581, 0.004698540549725294, 0.004926916677504778, 0.005155292805284262, 0.0053836689330637455, 0.005612045060843229, 0.005840421188622713, 0.006068797316402197, 0.006297173444181681, 0.0065255495719611645]}, "_wandb": {"runtime": 1029}}